{"learner":{"attributes":{"best_iteration":"999","best_ntree_limit":"1000","scikit_learn":"{\"n_estimators\": 1000, \"objective\": \"reg:squarederror\", \"max_depth\": null, \"max_leaves\": null, \"max_bin\": null, \"grow_policy\": null, \"learning_rate\": null, \"verbosity\": null, \"booster\": null, \"tree_method\": null, \"gamma\": null, \"min_child_weight\": null, \"max_delta_step\": null, \"subsample\": null, \"sampling_method\": null, \"colsample_bytree\": null, \"colsample_bylevel\": null, \"colsample_bynode\": null, \"reg_alpha\": null, \"reg_lambda\": null, \"scale_pos_weight\": null, \"base_score\": null, \"missing\": NaN, \"num_parallel_tree\": null, \"random_state\": null, \"n_jobs\": null, \"monotone_constraints\": null, \"interaction_constraints\": null, \"importance_type\": null, \"gpu_id\": null, \"validate_parameters\": null, \"predictor\": null, \"enable_categorical\": false, \"feature_types\": null, \"max_cat_to_onehot\": null, \"max_cat_threshold\": null, \"eval_metric\": null, \"early_stopping_rounds\": null, \"callbacks\": null, \"_estimator_type\": \"regressor\"}"},"feature_names":[],"feature_types":[],"gradient_booster":{"model":{"gbtree_model_param":{"num_parallel_tree":"1","num_trees":"1000","size_leaf_vector":"0"},"tree_info":[0,0,0,0,0,0,0,0,0,0,0,0,0,0,0,0,0,0,0,0,0,0,0,0,0,0,0,0,0,0,0,0,0,0,0,0,0,0,0,0,0,0,0,0,0,0,0,0,0,0,0,0,0,0,0,0,0,0,0,0,0,0,0,0,0,0,0,0,0,0,0,0,0,0,0,0,0,0,0,0,0,0,0,0,0,0,0,0,0,0,0,0,0,0,0,0,0,0,0,0,0,0,0,0,0,0,0,0,0,0,0,0,0,0,0,0,0,0,0,0,0,0,0,0,0,0,0,0,0,0,0,0,0,0,0,0,0,0,0,0,0,0,0,0,0,0,0,0,0,0,0,0,0,0,0,0,0,0,0,0,0,0,0,0,0,0,0,0,0,0,0,0,0,0,0,0,0,0,0,0,0,0,0,0,0,0,0,0,0,0,0,0,0,0,0,0,0,0,0,0,0,0,0,0,0,0,0,0,0,0,0,0,0,0,0,0,0,0,0,0,0,0,0,0,0,0,0,0,0,0,0,0,0,0,0,0,0,0,0,0,0,0,0,0,0,0,0,0,0,0,0,0,0,0,0,0,0,0,0,0,0,0,0,0,0,0,0,0,0,0,0,0,0,0,0,0,0,0,0,0,0,0,0,0,0,0,0,0,0,0,0,0,0,0,0,0,0,0,0,0,0,0,0,0,0,0,0,0,0,0,0,0,0,0,0,0,0,0,0,0,0,0,0,0,0,0,0,0,0,0,0,0,0,0,0,0,0,0,0,0,0,0,0,0,0,0,0,0,0,0,0,0,0,0,0,0,0,0,0,0,0,0,0,0,0,0,0,0,0,0,0,0,0,0,0,0,0,0,0,0,0,0,0,0,0,0,0,0,0,0,0,0,0,0,0,0,0,0,0,0,0,0,0,0,0,0,0,0,0,0,0,0,0,0,0,0,0,0,0,0,0,0,0,0,0,0,0,0,0,0,0,0,0,0,0,0,0,0,0,0,0,0,0,0,0,0,0,0,0,0,0,0,0,0,0,0,0,0,0,0,0,0,0,0,0,0,0,0,0,0,0,0,0,0,0,0,0,0,0,0,0,0,0,0,0,0,0,0,0,0,0,0,0,0,0,0,0,0,0,0,0,0,0,0,0,0,0,0,0,0,0,0,0,0,0,0,0,0,0,0,0,0,0,0,0,0,0,0,0,0,0,0,0,0,0,0,0,0,0,0,0,0,0,0,0,0,0,0,0,0,0,0,0,0,0,0,0,0,0,0,0,0,0,0,0,0,0,0,0,0,0,0,0,0,0,0,0,0,0,0,0,0,0,0,0,0,0,0,0,0,0,0,0,0,0,0,0,0,0,0,0,0,0,0,0,0,0,0,0,0,0,0,0,0,0,0,0,0,0,0,0,0,0,0,0,0,0,0,0,0,0,0,0,0,0,0,0,0,0,0,0,0,0,0,0,0,0,0,0,0,0,0,0,0,0,0,0,0,0,0,0,0,0,0,0,0,0,0,0,0,0,0,0,0,0,0,0,0,0,0,0,0,0,0,0,0,0,0,0,0,0,0,0,0,0,0,0,0,0,0,0,0,0,0,0,0,0,0,0,0,0,0,0,0,0,0,0,0,0,0,0,0,0,0,0,0,0,0,0,0,0,0,0,0,0,0,0,0,0,0,0,0,0,0,0,0,0,0,0,0,0,0,0,0,0,0,0,0,0,0,0,0,0,0,0,0,0,0,0,0,0,0,0,0,0,0,0,0,0,0,0,0,0,0,0,0,0,0,0,0,0,0,0,0,0,0,0,0,0,0,0,0,0,0,0,0,0,0,0,0,0,0,0,0,0,0,0,0,0,0,0,0,0,0,0,0,0,0,0,0,0,0,0,0,0,0,0,0,0,0,0,0,0,0,0,0,0,0,0,0,0,0,0,0,0,0,0,0,0,0,0,0,0,0,0,0,0,0,0,0,0,0,0,0,0,0,0,0,0,0,0,0,0,0,0,0,0,0,0,0,0,0,0,0,0,0,0,0,0,0,0,0,0,0,0,0,0,0,0,0,0,0,0,0,0,0,0,0,0,0,0,0,0,0,0,0,0,0,0,0,0,0,0,0,0,0,0,0,0,0,0,0,0,0,0,0,0,0,0,0,0,0,0,0,0,0,0,0,0,0,0,0,0,0,0,0,0,0,0,0,0,0,0,0,0,0,0,0,0,0,0,0,0,0,0,0,0,0,0,0,0,0,0,0,0,0,0,0,0,0],"trees":[{"base_weights":[1.5469366E-2,-1.4888646E-1,1.8042071E-1,-3.0313858E-1,-6.7552805E-2,9.457039E-2,3.0713028E-1,-3.8791016E-1,-2.491704E-1,-1.2034792E-1,-3.2537196E-2,5.5556428E-2,1.4232126E-1,2.4559844E-1,3.9796928E-1,-4.28583E-1,-3.3343565E-1,-2.8249374E-1,-2.1447115E-1,-1.4862622E-1,-9.313264E-2,-5.524916E-2,-6.514195E-3,3.562809E-2,7.398177E-2,1.2052597E-1,1.6595075E-1,2.1405332E-1,2.6164922E-1,3.4018344E-1,4.502768E-1,-8.487568E-2,-1.08415775E-1,-6.2291503E-2,-3.929059E-2,-2.2207994E-2,2.415351E-3,4.5371756E-2,2.4340162E-2,6.317407E-2,8.252553E-2,-5.1813826E-2,-6.873404E-2,-2.4771823E-2,-4.8063755E-2,-1.1108807E-2,-3.0531902E-2,9.8712025E-3,-8.861324E-3,2.7185908E-2,4.7472503E-2,1.9076962E-2,3.5908416E-2,6.64836E-2,3.9970726E-2],"categories":[],"categories_nodes":[],"categories_segments":[],"categories_sizes":[],"default_left":[1,1,1,1,1,1,1,1,1,1,1,1,1,1,1,0,0,0,0,0,1,1,1,1,1,0,0,0,0,0,0,0,0,1,1,1,1,1,1,1,0,0,0,0,0,0,0,0,0,0,0,0,0,0,0],"id":0,"left_children":[1,3,5,7,9,11,13,15,17,19,21,23,25,27,29,-1,-1,-1,-1,-1,31,33,35,37,39,-1,-1,-1,-1,-1,-1,-1,-1,41,43,45,47,49,51,53,-1,-1,-1,-1,-1,-1,-1,-1,-1,-1,-1,-1,-1,-1,-1],"loss_changes":[2.8574444E1,6.603752E0,5.692812E0,7.359886E-1,6.375668E-1,5.789225E-1,1.0872307E0,9.97448E-3,7.123089E-2,9.236312E-2,1.23757094E-1,6.1621726E-2,5.2615404E-2,9.309292E-3,1.00725174E-1,0E0,0E0,0E0,0E0,0E0,1.013279E-5,1.0139734E-2,1.3927353E-2,8.354425E-3,3.096968E-3,0E0,0E0,0E0,0E0,0E0,0E0,0E0,0E0,1.5688539E-3,3.5222694E-3,2.9868167E-3,5.4684132E-3,4.2857975E-4,1.8721893E-3,7.214546E-4,0E0,0E0,0E0,0E0,0E0,0E0,0E0,0E0,0E0,0E0,0E0,0E0,0E0,0E0,0E0],"parents":[2147483647,0,0,1,1,2,2,3,3,4,4,5,5,6,6,7,7,8,8,9,9,10,10,11,11,12,12,13,13,14,14,20,20,21,21,22,22,23,23,24,24,33,33,34,34,35,35,36,36,37,37,38,38,39,39],"right_children":[2,4,6,8,10,12,14,16,18,20,22,24,26,28,30,-1,-1,-1,-1,-1,32,34,36,38,40,-1,-1,-1,-1,-1,-1,-1,-1,42,44,46,48,50,52,54,-1,-1,-1,-1,-1,-1,-1,-1,-1,-1,-1,-1,-1,-1,-1],"split_conditions":[5.160258E-1,3.168867E-1,6.988837E-1,1.7824724E-1,4.2186415E-1,5.972366E-1,8.2078224E-1,1.1624649E-1,2.4490258E-1,3.797086E-1,4.691816E-1,5.5416983E-1,6.435089E-1,7.371377E-1,8.980284E-1,-1.2857491E-1,-1.000307E-1,-8.474813E-2,-6.4341344E-2,-4.458787E-2,4.8797518E-1,4.5054126E-1,4.879647E-1,5.194967E-1,5.748217E-1,3.6157794E-2,4.9785227E-2,6.4215995E-2,7.849477E-2,1.02055036E-1,1.3508305E-1,-2.5462706E-2,-3.2524735E-2,4.2118114E-1,4.7977948E-1,4.656404E-1,5.4926527E-1,5.2067703E-1,5.414847E-1,6.533254E-1,2.4757659E-2,-1.5544148E-2,-2.0620214E-2,-7.431547E-3,-1.4419127E-2,-3.3326424E-3,-9.159571E-3,2.9613608E-3,-2.6583972E-3,8.155772E-3,1.4241751E-2,5.723089E-3,1.0772525E-2,1.9945081E-2,1.1991219E-2],"split_indices":[179,179,179,179,179,179,179,179,179,179,179,179,179,179,179,0,0,0,0,0,170,179,179,167,179,0,0,0,0,0,0,0,0,171,166,165,170,179,179,167,0,0,0,0,0,0,0,0,0,0,0,0,0,0,0],"split_type":[0,0,0,0,0,0,0,0,0,0,0,0,0,0,0,0,0,0,0,0,0,0,0,0,0,0,0,0,0,0,0,0,0,0,0,0,0,0,0,0,0,0,0,0,0,0,0,0,0,0,0,0,0,0,0],"sum_hessian":[1.052E3,5.27E2,5.25E2,1.81E2,3.46E2,3.14E2,2.11E2,6.8E1,1.13E2,1.37E2,2.09E2,1.74E2,1.4E2,1.28E2,8.3E1,3.5E1,3.3E1,5.4E1,5.9E1,6.5E1,7.2E1,1.11E2,9.8E1,8.5E1,8.9E1,7.6E1,6.4E1,4.8E1,8E1,4.3E1,4E1,5.1E1,2.1E1,7.5E1,3.6E1,3.5E1,6.3E1,4.4E1,4.1E1,4.3E1,4.6E1,3.2E1,4.3E1,1.5E1,2.1E1,1.6E1,1.9E1,3.8E1,2.5E1,6E0,3.8E1,3E1,1.1E1,3.6E1,7E0],"tree_param":{"num_deleted":"0","num_feature":"180","num_nodes":"55","size_leaf_vector":"0"}},{"base_weights":[1.0838906E-2,-1.082465E-1,1.246017E-1,-2.2302477E-1,-5.3982507E-2,6.82057E-2,2.229467E-1,-2.844234E-1,-1.8887113E-1,-1.0139632E-1,-3.1631134E-2,4.0040016E-2,1.0847233E-1,1.844087E-1,2.943944E-1,-2.1164335E-1,-1.6519827E-1,-1.2095904E-1,-7.967361E-2,-4.8220906E-2,-1.1916703E-2,2.3755E-2,5.487187E-2,9.233219E-2,1.2933943E-1,1.6395587E-1,2.1193492E-1,3.21654E-1,2.4493805E-1,-6.518624E-2,-9.0056464E-2,-5.4774974E-2,-3.5061855E-2,-2.0708583E-2,-1.1672617E-3,3.1555254E-2,1.5479647E-2,4.6516456E-2,6.32996E-2,1.0270116E-1,8.08074E-2,-4.0949233E-2,-5.8671713E-2,-1.6237766E-2,-3.7479524E-2,-1.2148944E-2,-2.7148623E-2,9.438038E-3,-5.8483044E-3,2.4605237E-2,3.573957E-2,7.311151E-3,2.1636637E-2,5.2607525E-2,3.8821373E-2,6.5620825E-2,3.534046E-2],"categories":[],"categories_nodes":[],"categories_segments":[],"categories_sizes":[],"default_left":[1,1,1,1,1,1,1,0,1,1,1,1,1,1,1,0,0,0,1,1,1,1,1,1,0,0,0,0,0,0,0,1,1,1,1,1,1,1,1,0,0,0,0,0,0,0,0,0,0,0,0,0,0,0,0,0,0],"id":1,"left_children":[1,3,5,7,9,11,13,-1,15,17,19,21,23,25,27,-1,-1,-1,29,31,33,35,37,39,-1,-1,-1,-1,-1,-1,-1,41,43,45,47,49,51,53,55,-1,-1,-1,-1,-1,-1,-1,-1,-1,-1,-1,-1,-1,-1,-1,-1,-1,-1],"loss_changes":[1.4278994E1,3.1955495E0,2.9742298E0,2.9228306E-1,3.6876976E-1,3.8579988E-1,4.853878E-1,0E0,2.3797035E-2,3.7957788E-2,7.791929E-2,4.7970027E-2,3.5546303E-2,3.844118E-2,1.1541367E-2,0E0,0E0,0E0,2.5530756E-3,9.291351E-3,1.0466194E-2,5.9019737E-3,4.5197606E-3,1.6195178E-3,0E0,0E0,0E0,0E0,0E0,0E0,0E0,2.1768212E-3,1.4848933E-3,3.0327644E-3,2.5870332E-3,5.7467446E-4,2.3564799E-3,6.2936544E-4,9.2591345E-4,0E0,0E0,0E0,0E0,0E0,0E0,0E0,0E0,0E0,0E0,0E0,0E0,0E0,0E0,0E0,0E0,0E0,0E0],"parents":[2147483647,0,0,1,1,2,2,3,3,4,4,5,5,6,6,8,8,9,9,10,10,11,11,12,12,13,13,14,14,18,18,19,19,20,20,21,21,22,22,23,23,31,31,32,32,33,33,34,34,35,35,36,36,37,37,38,38],"right_children":[2,4,6,8,10,12,14,-1,16,18,20,22,24,26,28,-1,-1,-1,30,32,34,36,38,40,-1,-1,-1,-1,-1,-1,-1,42,44,46,48,50,52,54,56,-1,-1,-1,-1,-1,-1,-1,-1,-1,-1,-1,-1,-1,-1,-1,-1,-1,-1],"split_conditions":[5.116011E-1,2.927639E-1,7.1142644E-1,1.6097829E-1,4.0546584E-1,6.114079E-1,8.441677E-1,-8.532703E-2,2.2482932E-1,3.59877E-1,4.5571816E-1,5.5416983E-1,6.6170764E-1,7.6343346E-1,7.284748E-1,-6.3493006E-2,-4.955948E-2,-3.6287714E-2,4.9357378E-1,4.401633E-1,4.879647E-1,5.211315E-1,5.80353E-1,6.26886E-1,3.880183E-2,4.9186762E-2,6.358048E-2,9.64962E-2,7.348142E-2,-1.9555872E-2,-2.701694E-2,4.0627635E-1,3.3736855E-1,4.7254375E-1,4.1112596E-1,5.325644E-1,5.287556E-1,5.542065E-1,8.2825375E-1,3.0810349E-2,2.4242222E-2,-1.2284771E-2,-1.7601514E-2,-4.8713298E-3,-1.1243857E-2,-3.6446832E-3,-8.144587E-3,2.8314115E-3,-1.7544914E-3,7.3815715E-3,1.0721872E-2,2.1933455E-3,6.4909915E-3,1.5782258E-2,1.1646412E-2,1.9686248E-2,1.0602138E-2],"split_indices":[179,179,179,179,179,179,179,0,179,179,179,179,179,179,35,0,0,0,166,179,179,168,179,170,0,0,0,0,0,0,0,168,171,165,163,179,179,173,162,0,0,0,0,0,0,0,0,0,0,0,0,0,0,0,0,0,0],"split_type":[0,0,0,0,0,0,0,0,0,0,0,0,0,0,0,0,0,0,0,0,0,0,0,0,0,0,0,0,0,0,0,0,0,0,0,0,0,0,0,0,0,0,0,0,0,0,0,0,0,0,0,0,0,0,0,0,0],"sum_hessian":[1.052E3,5.14E2,5.38E2,1.64E2,3.5E2,3.43E2,1.95E2,5.6E1,1.08E2,1.11E2,2.39E2,2.03E2,1.4E2,1.29E2,6.6E1,5.1E1,5.7E1,5.6E1,5.5E1,1.29E2,1.1E2,9.8E1,1.05E2,8.2E1,5.8E1,7.8E1,5.1E1,3.9E1,2.7E1,2.6E1,2.9E1,8.4E1,4.5E1,6E1,5E1,4.9E1,4.9E1,5.6E1,4.9E1,3.9E1,4.3E1,2.1E1,6.3E1,6E0,3.9E1,2.7E1,3.3E1,1.5E1,3.5E1,2.1E1,2.8E1,2.2E1,2.7E1,2.8E1,2.8E1,4.4E1,5E0],"tree_param":{"num_deleted":"0","num_feature":"180","num_nodes":"57","size_leaf_vector":"0"}},{"base_weights":[7.7041853E-3,-7.789426E-2,8.672811E-2,-1.4686316E-1,-3.3448517E-2,4.2250168E-2,1.503909E-1,-1.9045912E-1,-1.1632082E-1,-5.3410277E-2,-1.6812664E-2,2.3315772E-2,6.433207E-2,1.1521034E-1,1.948064E-1,-2.3458534E-1,-1.6613655E-1,-1.3023481E-1,-9.4514824E-2,-6.5193094E-2,-4.3758247E-2,-2.4923274E-2,-5.15247E-3,1.2763959E-2,3.1975992E-2,5.0957486E-2,7.523067E-2,1.7023082E-1,2.3240237E-1,-7.117676E-2,-1.0340401E-1,-5.2512184E-2,-7.5771004E-2,-1.8549502E-2,-4.484095E-2,-1.9467417E-2,-2.9033203E-2,1.8452224E-3,-1.2007038E-2,1.923727E-2,6.883283E-3,4.4785872E-2,2.9242769E-2,5.9093308E-2,4.060505E-2,-4.1006304E-2,-5.3527653E-2,1.3401508E-3,-2.0443674E-2,-2.0877706E-2,-3.21323E-2,-1.7841324E-3,6.006509E-3,-1.3355251E-2,-9.770632E-4,2.5582293E-2,1.4470078E-2,9.09371E-3,-4.2003505E-3,2.4636758E-2,3.5020765E-2],"categories":[],"categories_nodes":[],"categories_segments":[],"categories_sizes":[],"default_left":[1,1,1,1,1,1,1,1,1,1,1,1,1,0,1,0,0,0,1,1,1,1,1,1,1,1,0,0,0,0,0,0,0,0,1,1,1,1,1,1,1,0,1,0,0,0,0,0,0,0,0,0,0,0,0,0,0,0,0,0,0],"id":2,"left_children":[1,3,5,7,9,11,13,15,17,19,21,23,25,-1,27,-1,-1,-1,29,31,33,35,37,39,41,43,-1,-1,-1,-1,-1,-1,-1,-1,45,47,49,51,53,55,57,-1,59,-1,-1,-1,-1,-1,-1,-1,-1,-1,-1,-1,-1,-1,-1,-1,-1,-1,-1],"loss_changes":[7.1295905E0,1.5461671E0,1.5453572E0,2.4148703E-1,1.0171503E-1,1.3396686E-1,3.2913303E-1,4.6887636E-2,2.3796558E-2,1.3069183E-2,1.594871E-2,1.5674911E-2,1.7885327E-2,0E0,5.0984144E-2,0E0,0E0,0E0,3.012836E-3,4.2034984E-3,1.3516992E-3,1.6771182E-3,3.4277528E-3,2.9510465E-3,2.0515174E-3,3.4963042E-3,0E0,0E0,0E0,0E0,0E0,0E0,0E0,0E0,3.3663213E-4,9.618215E-4,7.192604E-4,5.544167E-4,5.2229874E-4,7.7924505E-4,1.1161773E-3,0E0,1.3195053E-3,0E0,0E0,0E0,0E0,0E0,0E0,0E0,0E0,0E0,0E0,0E0,0E0,0E0,0E0,0E0,0E0,0E0,0E0],"parents":[2147483647,0,0,1,1,2,2,3,3,4,4,5,5,6,6,7,7,8,8,9,9,10,10,11,11,12,12,14,14,18,18,19,19,20,20,21,21,22,22,23,23,24,24,25,25,34,34,35,35,36,36,37,37,38,38,39,39,40,40,42,42],"right_children":[2,4,6,8,10,12,14,16,18,20,22,24,26,-1,28,-1,-1,-1,30,32,34,36,38,40,42,44,-1,-1,-1,-1,-1,-1,-1,-1,46,48,50,52,54,56,58,-1,60,-1,-1,-1,-1,-1,-1,-1,-1,-1,-1,-1,-1,-1,-1,-1,-1,-1,-1],"split_conditions":[5.086416E-1,3.309847E-1,6.835788E-1,1.9333851E-1,4.2795712E-1,5.8661306E-1,7.9480946E-1,8.5493185E-2,2.752174E-1,3.9117303E-1,4.718511E-1,5.434438E-1,6.267109E-1,3.45631E-2,9.182921E-1,-7.037561E-2,-4.9840968E-2,-3.9070442E-2,4.3101233E-1,4.4560486E-1,2.6519176E-1,4.4591057E-1,4.5219046E-1,5.291278E-1,4.121526E-1,6.375015E-1,2.2569202E-2,5.106925E-2,6.9720715E-2,-2.1353029E-2,-3.1021204E-2,-1.5753657E-2,-2.2731302E-2,-5.5648508E-3,4.8710084E-1,2.6519176E-1,2.5510418E-1,5.5160666E-1,5.036365E-1,4.1714522E-1,6.396309E-1,1.3435762E-2,5.675963E-1,1.7727993E-2,1.2181516E-2,-1.2301892E-2,-1.6058296E-2,4.0204526E-4,-6.1331023E-3,-6.263312E-3,-9.639691E-3,-5.3523976E-4,1.8019528E-3,-4.006576E-3,-2.9311897E-4,7.674688E-3,4.3410235E-3,2.7281132E-3,-1.2601052E-3,7.3910276E-3,1.05062295E-2],"split_indices":[179,179,179,179,179,179,179,179,179,179,179,179,179,0,179,0,0,0,157,171,173,173,165,167,169,167,0,0,0,0,0,0,0,0,172,172,82,76,179,170,173,0,179,0,0,0,0,0,0,0,0,0,0,0,0,0,0,0,0,0,0],"split_type":[0,0,0,0,0,0,0,0,0,0,0,0,0,0,0,0,0,0,0,0,0,0,0,0,0,0,0,0,0,0,0,0,0,0,0,0,0,0,0,0,0,0,0,0,0,0,0,0,0,0,0,0,0,0,0,0,0,0,0,0,0],"sum_hessian":[1.052E3,5.05E2,5.47E2,1.97E2,3.08E2,3.23E2,2.24E2,7.9E1,1.18E2,1.39E2,1.69E2,1.75E2,1.48E2,1.27E2,9.7E1,2.5E1,5.4E1,6.9E1,4.9E1,6E1,7.9E1,9.9E1,7E1,8E1,9.5E1,6.9E1,7.9E1,6.2E1,3.5E1,1.6E1,3.3E1,3E1,3E1,4E0,7.5E1,4.5E1,5.4E1,3.5E1,3.5E1,3.7E1,4.3E1,1.4E1,8.1E1,3.6E1,3.3E1,5.6E1,1.9E1,2E0,4.3E1,1.7E1,3.7E1,1.9E1,1.6E1,3.1E1,4E0,1.4E1,2.3E1,3.6E1,7E0,4.8E1,3.3E1],"tree_param":{"num_deleted":"0","num_feature":"180","num_nodes":"61","size_leaf_vector":"0"}},{"base_weights":[5.339662E-3,-5.5839226E-2,6.0545627E-2,-1.103601E-1,-2.7917942E-2,3.3796273E-2,1.1459051E-1,-1.548587E-1,-9.5361635E-2,-5.0355557E-2,-1.7023806E-2,1.8713005E-2,5.4332513E-2,9.856911E-2,1.6016363E-1,-1.3053381E-1,-1.8470794E-1,-1.104376E-1,-8.228366E-2,-6.1858654E-2,-4.0478442E-2,-2.549264E-2,-8.554215E-3,1.004062E-2,2.6676284E-2,4.3852672E-2,6.314764E-2,8.58916E-2,1.15598835E-1,-6.607238E-2,-9.2675984E-2,-4.3331515E-2,-6.8213016E-2,-3.3870626E-2,-4.705656E-2,-2.8602403E-2,-2.0750407E-2,-3.1132724E-3,-1.3573512E-2,1.4563282E-2,5.3285137E-3,3.906464E-2,2.3558546E-2,4.5937862E-2,2.3457058E-2,7.28537E-2,5.333244E-2,-1.9581132E-2,-3.1148508E-2,-1.7992266E-2,-2.6792152E-2,-7.447774E-3,1.1791176E-3,-1.680302E-2,-8.163686E-3,1.9484535E-2,1.1908564E-2,1.627922E-3,9.4080595E-3,3.992235E-2,1.0955244E-2,1.8662501E-2,2.6237478E-2,5.1699694E-2,3.9868817E-2],"categories":[],"categories_nodes":[],"categories_segments":[],"categories_sizes":[],"default_left":[1,1,1,1,1,1,1,1,1,1,1,1,1,1,0,0,0,0,1,1,1,1,1,1,1,1,1,0,0,0,0,0,0,0,0,1,1,1,1,1,1,1,1,1,0,0,0,0,0,0,0,0,0,0,0,0,0,0,0,0,0,0,0,0,0],"id":3,"left_children":[1,3,5,7,9,11,13,15,17,19,21,23,25,27,-1,-1,-1,-1,29,31,33,35,37,39,41,43,45,-1,-1,-1,-1,-1,-1,-1,-1,47,49,51,53,55,57,59,61,63,-1,-1,-1,-1,-1,-1,-1,-1,-1,-1,-1,-1,-1,-1,-1,-1,-1,-1,-1,-1,-1],"loss_changes":[3.559825E0,7.5806534E-1,7.9702616E-1,9.802461E-2,8.029634E-2,1.1421165E-1,1.17829084E-1,5.658567E-3,1.6346931E-2,9.766728E-3,1.5920624E-2,1.464925E-2,1.1734635E-2,1.986456E-2,0E0,0E0,0E0,0E0,6.17522E-3,2.695173E-3,1.0576546E-3,1.0581762E-3,3.0710492E-3,2.1600826E-3,3.4055337E-3,2.1120906E-3,4.0216744E-3,0E0,0E0,0E0,0E0,0E0,0E0,0E0,0E0,8.830726E-4,3.1781942E-4,1.0506826E-3,8.936189E-4,4.6038814E-4,7.848111E-4,6.894395E-5,7.170364E-4,2.8170645E-4,0E0,0E0,0E0,0E0,0E0,0E0,0E0,0E0,0E0,0E0,0E0,0E0,0E0,0E0,0E0,0E0,0E0,0E0,0E0,0E0,0E0],"parents":[2147483647,0,0,1,1,2,2,3,3,4,4,5,5,6,6,7,7,8,8,9,9,10,10,11,11,12,12,13,13,18,18,19,19,20,20,21,21,22,22,23,23,24,24,25,25,26,26,35,35,36,36,37,37,38,38,39,39,40,40,41,41,42,42,43,43],"right_children":[2,4,6,8,10,12,14,16,18,20,22,24,26,28,-1,-1,-1,-1,30,32,34,36,38,40,42,44,46,-1,-1,-1,-1,-1,-1,-1,-1,48,50,52,54,56,58,60,62,64,-1,-1,-1,-1,-1,-1,-1,-1,-1,-1,-1,-1,-1,-1,-1,-1,-1,-1,-1,-1,-1],"split_conditions":[5.039865E-1,3.0154872E-1,7.239796E-1,1.3966665E-1,4.0546584E-1,6.1016697E-1,8.759059E-1,6.026198E-1,2.1373734E-1,3.5012215E-1,4.4870275E-1,5.509025E-1,6.53175E-1,7.854819E-1,4.804909E-2,-3.9160147E-2,-5.5412386E-2,-3.3131283E-2,4.8915488E-1,4.3101233E-1,4.2540485E-1,4.2886624E-1,4.656404E-1,5.318364E-1,4.121526E-1,8.318547E-1,6.3530064E-1,2.5767481E-2,3.467965E-2,-1.9821715E-2,-2.7802797E-2,-1.2999455E-2,-2.0463906E-2,-1.0161188E-2,-1.4116968E-2,4.0372175E-1,4.9642795E-1,4.775256E-1,4.794839E-1,4.2424124E-1,5.2625793E-1,8.0614555E-1,5.6883526E-1,6.191265E-1,7.0371176E-3,2.185611E-2,1.5999733E-2,-5.87434E-3,-9.344553E-3,-5.3976797E-3,-8.037646E-3,-2.2343323E-3,3.537353E-4,-5.0409064E-3,-2.449106E-3,5.8453605E-3,3.5725692E-3,4.8837665E-4,2.822418E-3,1.1976705E-2,3.2865733E-3,5.5987504E-3,7.871244E-3,1.5509909E-2,1.1960645E-2],"split_indices":[179,179,179,179,179,179,179,2,179,179,179,179,179,179,0,0,0,0,157,155,174,179,167,167,168,164,158,0,0,0,0,0,0,0,0,172,172,179,179,172,179,0,179,173,0,0,0,0,0,0,0,0,0,0,0,0,0,0,0,0,0,0,0,0,0],"split_type":[0,0,0,0,0,0,0,0,0,0,0,0,0,0,0,0,0,0,0,0,0,0,0,0,0,0,0,0,0,0,0,0,0,0,0,0,0,0,0,0,0,0,0,0,0,0,0,0,0,0,0,0,0,0,0,0,0,0,0,0,0,0,0,0,0],"sum_hessian":[1.052E3,4.99E2,5.53E2,1.68E2,3.31E2,3.71E2,1.82E2,4E1,1.28E2,1.07E2,2.24E2,2.15E2,1.56E2,1.37E2,4.5E1,2.5E1,1.5E1,5.6E1,7.2E1,4.7E1,6E1,1.11E2,1.13E2,1.04E2,1.11E2,7.4E1,8.2E1,8.2E1,5.5E1,3.1E1,4.1E1,1.4E1,3.3E1,3.3E1,2.7E1,6.4E1,4.7E1,5.5E1,5.8E1,5.2E1,5.2E1,2E1,9.1E1,6.6E1,8E0,3.8E1,4.4E1,1.6E1,4.8E1,3.5E1,1.2E1,2.7E1,2.8E1,3.5E1,2.3E1,1.6E1,3.6E1,2.8E1,2.4E1,1.9E1,1E0,3.5E1,5.6E1,3E1,3.6E1],"tree_param":{"num_deleted":"0","num_feature":"180","num_nodes":"65","size_leaf_vector":"0"}},{"base_weights":[3.6914414E-3,-3.558123E-2,4.6868384E-2,-7.391911E-2,-1.4266225E-2,2.7921146E-2,8.2113095E-2,-1.1251639E-1,-6.4290255E-2,-2.5762897E-2,-4.749743E-3,1.8838068E-2,4.2906456E-2,7.359411E-2,1.281029E-1,-9.026848E-2,-1.3001333E-1,-7.4299335E-2,-4.8909165E-2,-3.6121376E-2,-2.1922737E-2,-9.35696E-3,2.4920206E-3,1.3275996E-2,2.4488976E-2,4.6419133E-2,3.0469853E-2,6.131094E-2,8.474732E-2,-5.821808E-2,-7.8915276E-2,-3.6475107E-2,-5.471168E-2,-2.4932278E-2,-4.0825486E-2,-1.8827487E-2,-2.7222786E-2,-7.908177E-3,-2.0673236E-2,4.3370766E-3,-3.368522E-3,1.4715637E-2,5.4202145E-3,2.6738517E-2,1.5195698E-2,4.0425826E-2,5.4952074E-2,1.4874086E-2,3.1651825E-2,6.1692208E-2,1.6548425E-2,8.561895E-2,3.4998E-2,-4.292354E-2,-2.2589725E-2,-2.134367E-2,-1.4242955E-2,-1.1041147E-2,-3.6070638E-3,9.425058E-3,2.8374842E-3,-1.2342589E-3,-7.787049E-3,1.9673614E-2,1.2993417E-2,8.125162E-3,1.8124713E-3,3.3349663E-2,2.413259E-2,1.0178894E-2,1.7885877E-2,4.513786E-2,3.2211944E-2,6.205815E-2,1.7489314E-2],"categories":[],"categories_nodes":[],"categories_segments":[],"categories_sizes":[],"default_left":[1,1,1,1,1,1,1,1,1,1,1,1,1,1,0,0,0,1,1,1,1,1,1,1,1,1,1,1,1,0,0,0,0,0,1,1,0,1,0,1,1,1,1,1,1,1,0,0,0,1,0,0,0,0,0,0,0,0,0,0,0,0,0,0,0,0,0,0,0,0,0,0,0,0,0],"id":4,"left_children":[1,3,5,7,9,11,13,15,17,19,21,23,25,27,-1,-1,-1,29,31,33,35,37,39,41,43,45,47,49,51,-1,-1,-1,-1,-1,53,55,-1,57,-1,59,61,63,65,67,69,71,-1,-1,-1,73,-1,-1,-1,-1,-1,-1,-1,-1,-1,-1,-1,-1,-1,-1,-1,-1,-1,-1,-1,-1,-1,-1,-1,-1,-1],"loss_changes":[1.7872123E0,4.500245E-1,3.3293784E-1,6.598079E-2,3.8826838E-2,4.3836683E-2,5.913496E-2,3.0561388E-3,2.099824E-2,5.612403E-3,6.5627354E-3,6.14962E-3,3.9589703E-3,1.535362E-2,0E0,0E0,0E0,2.457559E-3,2.766192E-3,1.1927895E-3,1.4560595E-3,1.8038917E-3,8.472127E-4,1.1190437E-3,1.7051585E-3,2.585724E-3,8.222088E-5,2.591014E-4,2.990961E-4,0E0,0E0,0E0,0E0,0E0,1.0164082E-4,6.0730986E-4,0E0,1.4155018E-3,0E0,4.2342045E-4,1.6956442E-4,5.043205E-4,1.6093097E-4,5.7343766E-4,1.1485582E-4,8.2956254E-4,0E0,0E0,0E0,1.116395E-4,0E0,0E0,0E0,0E0,0E0,0E0,0E0,0E0,0E0,0E0,0E0,0E0,0E0,0E0,0E0,0E0,0E0,0E0,0E0,0E0,0E0,0E0,0E0,0E0,0E0],"parents":[2147483647,0,0,1,1,2,2,3,3,4,4,5,5,6,6,7,7,8,8,9,9,10,10,11,11,12,12,13,13,17,17,18,18,19,19,20,20,21,21,22,22,23,23,24,24,25,25,26,26,27,27,28,28,34,34,35,35,37,37,39,39,40,40,41,41,42,42,43,43,44,44,45,45,49,49],"right_children":[2,4,6,8,10,12,14,16,18,20,22,24,26,28,-1,-1,-1,30,32,34,36,38,40,42,44,46,48,50,52,-1,-1,-1,-1,-1,54,56,-1,58,-1,60,62,64,66,68,70,72,-1,-1,-1,74,-1,-1,-1,-1,-1,-1,-1,-1,-1,-1,-1,-1,-1,-1,-1,-1,-1,-1,-1,-1,-1,-1,-1,-1,-1],"split_conditions":[5.2746105E-1,3.2975852E-1,7.3070467E-1,1.3051346E-1,4.3872178E-1,6.319878E-1,9.5328987E-1,5.7450736E-1,2.6161945E-1,3.7359506E-1,4.921394E-1,5.752089E-1,7.611633E-1,7.854819E-1,3.843087E-2,-2.7080545E-2,-3.9004E-2,4.479431E-1,4.5771644E-1,4.0369493E-1,4.9791533E-1,5.5197394E-1,5.68364E-1,6.533254E-1,6.666919E-1,5.916288E-1,4.2218345E-1,5.9591544E-1,9.724072E-1,-1.7465426E-2,-2.3674583E-2,-1.0942533E-2,-1.6413504E-2,-7.479684E-3,7.583766E-1,2.8849906E-1,-8.166837E-3,4.6433288E-1,-6.201971E-3,4.2424124E-1,7.296532E-1,4.1717774E-1,7.1881616E-1,4.5080858E-1,5.976623E-1,4.8255134E-1,1.6485622E-2,4.462226E-3,9.495548E-3,8.180314E-1,4.9645277E-3,2.5685687E-2,1.04994E-2,-1.2877063E-2,-6.7769177E-3,-6.4031016E-3,-4.2728866E-3,-3.3123442E-3,-1.0821192E-3,2.8275175E-3,8.512453E-4,-3.7027767E-4,-2.3361146E-3,5.9020845E-3,3.8980253E-3,2.4375487E-3,5.437414E-4,1.0004899E-2,7.2397776E-3,3.0536682E-3,5.3657633E-3,1.35413585E-2,9.663584E-3,1.8617446E-2,5.2467943E-3],"split_indices":[179,179,179,179,179,179,179,2,179,179,179,179,162,179,0,0,0,5,157,156,165,174,172,167,173,57,72,133,41,0,0,0,0,0,4,56,0,179,0,173,11,167,12,169,179,122,0,0,0,24,0,0,0,0,0,0,0,0,0,0,0,0,0,0,0,0,0,0,0,0,0,0,0,0,0],"split_type":[0,0,0,0,0,0,0,0,0,0,0,0,0,0,0,0,0,0,0,0,0,0,0,0,0,0,0,0,0,0,0,0,0,0,0,0,0,0,0,0,0,0,0,0,0,0,0,0,0,0,0,0,0,0,0,0,0,0,0,0,0,0,0,0,0,0,0,0,0,0,0,0,0,0,0],"sum_hessian":[1.052E3,5.51E2,5.01E2,1.96E2,3.55E2,3.27E2,1.74E2,3.7E1,1.59E2,1.6E2,1.95E2,2.05E2,1.22E2,1.49E2,2.5E1,1.9E1,1.8E1,9.4E1,6.5E1,4.1E1,1.19E2,1.19E2,7.6E1,1.05E2,1E2,9.3E1,2.9E1,7.4E1,7.5E1,2.4E1,7E1,2.3E1,4.2E1,1.4E1,2.7E1,7.8E1,4.1E1,1.07E2,1.2E1,5.8E1,1.8E1,8.8E1,1.7E1,7.9E1,2.1E1,5.8E1,3.5E1,3E0,2.6E1,7.3E1,1E0,7.3E1,2E0,2.3E1,4E0,4.8E1,3E1,6.1E1,4.6E1,1.2E1,4.6E1,1.3E1,5E0,2E1,6.8E1,9E0,8E0,1.9E1,6E1,9E0,1.2E1,3.4E1,2.4E1,7.2E1,1E0],"tree_param":{"num_deleted":"0","num_feature":"180","num_nodes":"75","size_leaf_vector":"0"}},{"base_weights":[2.5890975E-3,-2.7819697E-2,3.0662566E-2,-5.9112757E-2,-1.5208335E-2,1.50718745E-2,5.3489115E-2,-9.775338E-2,-5.4237016E-2,-2.6597891E-2,-7.7359946E-3,8.938264E-3,2.3951441E-2,4.4767324E-2,7.854358E-2,-6.0281966E-2,-4.357274E-2,-3.2294087E-2,-2.053228E-2,-1.1334467E-2,-3.0561339E-3,4.6196366E-3,1.2374384E-2,2.8747411E-2,1.9615745E-2,3.805391E-2,5.2690208E-2,6.636096E-2,9.435487E-2,-4.2672098E-2,-6.272612E-2,-3.4954198E-2,-5.1137853E-2,-2.5145376E-2,-3.7698243E-2,-1.5561831E-2,-2.3341615E-2,-1.0218721E-2,-2.1867245E-2,3.5390442E-3,-4.8151286E-3,6.0290154E-3,-1.1962255E-3,1.7259523E-2,9.9947965E-3,3.4306526E-2,2.2990996E-2,2.1269098E-2,1.4816198E-2,4.3681942E-2,3.1496476E-2,5.6277588E-2,3.735148E-2,-6.9440424E-2,-5.4219633E-2,-6.608685E-3,-1.598026E-2,-2.3614377E-2,-5.8064163E-3,-6.1849104E-3,-1.2001185E-2,-1.6798214E-4,6.924339E-3,-6.2012575E-3,-1.2911195E-3,4.7156475E-3,8.564929E-3,7.537685E-4,-3.727939E-3,1.4627819E-2,2.2112828E-2,1.1262983E-2,6.427665E-3,3.7549358E-2,2.2928085E-2,1.3680954E-2,2.4164898E-2,4.96459E-3,2.149145E-2,3.122121E-3,1.5224386E-2,3.2806586E-2,1.9323478E-2,6.1381113E-2,4.5842614E-2],"categories":[],"categories_nodes":[],"categories_segments":[],"categories_sizes":[],"default_left":[1,1,1,1,1,1,1,0,1,1,1,1,1,1,1,1,1,1,1,1,1,1,1,1,1,1,1,0,0,0,1,0,0,0,0,1,1,1,0,1,1,1,1,1,1,1,1,1,1,0,1,1,0,0,0,0,0,0,0,0,0,0,0,0,0,0,0,0,0,0,0,0,0,0,0,0,0,0,0,0,0,0,0,0,0],"id":5,"left_children":[1,3,5,7,9,11,13,-1,15,17,19,21,23,25,27,29,31,33,35,37,39,41,43,45,47,49,51,-1,-1,-1,53,-1,-1,-1,-1,55,57,59,-1,61,63,65,67,69,71,73,75,77,79,-1,81,83,-1,-1,-1,-1,-1,-1,-1,-1,-1,-1,-1,-1,-1,-1,-1,-1,-1,-1,-1,-1,-1,-1,-1,-1,-1,-1,-1,-1,-1,-1,-1,-1,-1],"loss_changes":[8.997785E-1,1.9879287E-1,1.9421697E-1,2.2016406E-2,3.060285E-2,1.7595582E-2,4.499519E-2,0E0,5.8182776E-3,4.2776987E-3,3.670238E-3,2.8365012E-3,2.2016764E-3,6.8775713E-3,4.525423E-3,8.096695E-4,1.5377328E-3,1.8336251E-3,6.421432E-4,1.2337808E-3,1.142327E-3,7.2852604E-4,1.0829549E-3,1.1632927E-3,2.6415288E-4,2.0932853E-3,1.969859E-3,0E0,0E0,0E0,1.7592311E-4,0E0,0E0,0E0,0E0,3.0337833E-6,7.3336065E-5,7.4544735E-4,0E0,2.6470015E-4,3.681176E-4,1.9608252E-4,9.1672875E-5,1.1080131E-4,2.668891E-4,2.0911917E-4,3.006123E-5,8.182041E-5,5.7482626E-5,0E0,1.15614384E-4,2.7494133E-4,0E0,0E0,0E0,0E0,0E0,0E0,0E0,0E0,0E0,0E0,0E0,0E0,0E0,0E0,0E0,0E0,0E0,0E0,0E0,0E0,0E0,0E0,0E0,0E0,0E0,0E0,0E0,0E0,0E0,0E0,0E0,0E0,0E0],"parents":[2147483647,0,0,1,1,2,2,3,3,4,4,5,5,6,6,8,8,9,9,10,10,11,11,12,12,13,13,14,14,15,15,16,16,17,17,18,18,19,19,20,20,21,21,22,22,23,23,24,24,25,25,26,26,30,30,35,35,36,36,37,37,39,39,40,40,41,41,42,42,43,43,44,44,45,45,46,46,47,47,48,48,50,50,51,51],"right_children":[2,4,6,8,10,12,14,-1,16,18,20,22,24,26,28,30,32,34,36,38,40,42,44,46,48,50,52,-1,-1,-1,54,-1,-1,-1,-1,56,58,60,-1,62,64,66,68,70,72,74,76,78,80,-1,82,84,-1,-1,-1,-1,-1,-1,-1,-1,-1,-1,-1,-1,-1,-1,-1,-1,-1,-1,-1,-1,-1,-1,-1,-1,-1,-1,-1,-1,-1,-1,-1,-1,-1],"split_conditions":[5.086416E-1,2.6992083E-1,6.8664354E-1,4.8554257E-2,4.091308E-1,5.9586394E-1,8.5253024E-1,-2.9326016E-2,2.1157528E-1,3.5012215E-1,4.5772946E-1,5.471185E-1,6.266445E-1,7.5529003E-1,9.6623385E-1,4.6456307E-1,4.4945723E-1,3.8981518E-1,4.156385E-1,5.675124E-1,4.1912383E-1,5.741261E-1,5.2935964E-1,6.301844E-1,5.558562E-1,6.29451E-1,8.529514E-1,1.9908288E-2,2.8306462E-2,-1.28016295E-2,5.0044227E-1,-1.048626E-2,-1.5341356E-2,-7.543613E-3,-1.1309473E-2,2.0727664E-1,9.9607205E-1,6.2782115E-1,-6.560174E-3,4.5448217E-1,4.9484408E-1,5.342658E-1,7.1629053E-1,6.452675E-1,6.9807523E-1,5.8175373E-1,5.9433174E-1,4.4154596E-1,1.9118693E-1,1.3104583E-2,7.558316E-1,6.070118E-1,1.1205445E-2,-2.0832129E-2,-1.6265891E-2,-1.9826056E-3,-4.7940784E-3,-7.0843133E-3,-1.7419249E-3,-1.8554732E-3,-3.6003555E-3,-5.0394647E-5,2.0773017E-3,-1.8603773E-3,-3.8733587E-4,1.4146944E-3,2.5694787E-3,2.2613055E-4,-1.1183817E-3,4.388346E-3,6.6338484E-3,3.378895E-3,1.9282995E-3,1.1264808E-2,6.878426E-3,4.1042864E-3,7.24947E-3,1.4893771E-3,6.447435E-3,9.3663635E-4,4.567316E-3,9.841977E-3,5.7970434E-3,1.8414335E-2,1.3752785E-2],"split_indices":[179,179,179,179,179,179,179,0,179,179,179,179,171,179,179,110,163,169,169,170,173,174,173,24,57,159,172,0,0,0,133,0,0,0,0,10,51,118,0,95,179,179,10,77,8,141,177,25,100,0,28,0,0,0,0,0,0,0,0,0,0,0,0,0,0,0,0,0,0,0,0,0,0,0,0,0,0,0,0,0,0,0,0,0,0],"split_type":[0,0,0,0,0,0,0,0,0,0,0,0,0,0,0,0,0,0,0,0,0,0,0,0,0,0,0,0,0,0,0,0,0,0,0,0,0,0,0,0,0,0,0,0,0,0,0,0,0,0,0,0,0,0,0,0,0,0,0,0,0,0,0,0,0,0,0,0,0,0,0,0,0,0,0,0,0,0,0,0,0,0,0,0,0],"sum_hessian":[1.052E3,5.05E2,5.47E2,1.44E2,3.61E2,3.26E2,2.21E2,1.4E1,1.3E2,1.42E2,2.19E2,1.94E2,1.32E2,1.66E2,5.5E1,8E1,5E1,7.1E1,7.1E1,1.23E2,9.6E1,8.7E1,1.07E2,6E1,7.2E1,9.3E1,7.3E1,3.4E1,2.1E1,1.2E1,6.8E1,2.6E1,2.4E1,3.3E1,3.8E1,2.8E1,4.3E1,1.13E2,1E1,2E1,7.6E1,7E1,1.7E1,3.3E1,7.4E1,2.8E1,3.2E1,5.1E1,2.1E1,4.7E1,4.6E1,5.7E1,1.6E1,3.4E1,3.4E1,2E0,2.6E1,4.2E1,1E0,3.6E1,7.7E1,1E1,1E1,5.4E1,2.2E1,4.8E1,2.2E1,1E1,7E0,2.4E1,9E0,5.3E1,2.1E1,2E1,8E0,5E0,2.7E1,1E0,5E1,1E0,2E1,4E1,6E0,3.5E1,2.2E1],"tree_param":{"num_deleted":"0","num_feature":"180","num_nodes":"85","size_leaf_vector":"0"}},{"base_weights":[1.8417564E-3,-1.8478198E-2,2.3105085E-2,-4.0620588E-2,-9.10646E-3,1.496028E-2,4.4602934E-2,-7.356014E-2,-3.7452787E-2,-1.721096E-2,-3.9762547E-3,8.393815E-3,2.2258395E-2,3.7099164E-2,6.0302176E-2,-4.298002E-2,-2.9934406E-2,-2.154008E-2,-1.33160725E-2,-6.963823E-3,-5.4514327E-4,5.034864E-3,1.0803527E-2,1.6804913E-2,2.5752662E-2,1.8683383E-2,3.7888363E-2,6.513519E-2,4.5293204E-2,-5.2649304E-2,-3.90747E-2,-2.3414938E-2,-3.5039794E-2,-1.6704049E-2,-2.5884815E-2,-1.2055676E-2,-2.0126222E-2,-5.931456E-3,-1.47253405E-2,3.343982E-4,-6.1378656E-3,1.1155996E-2,4.0699663E-3,1.5219634E-2,9.137402E-3,2.3054926E-2,1.489879E-2,4.1591126E-2,2.385434E-2,3.8932256E-2,2.3819527E-2,-9.370218E-3,-2.4038913E-2,-3.611826E-2,-1.7652102E-2,-4.5807064E-3,-1.6925892E-2,-1.5405059E-2,-2.7580295E-2,-7.497832E-3,-1.2778362E-2,3.6758066E-3,-6.321316E-3,-1.5204925E-2,-4.2453706E-3,3.2929198E-3,-1.3411285E-3,-3.8737804E-4,-7.543206E-3,1.18048135E-2,2.3339093E-3,5.0794836E-3,8.2720583E-4,1.863164E-2,1.1909872E-2,1.0265845E-2,5.1557533E-3,1.5863229E-2,1.0734609E-2,2.470801E-2,1.3956589E-2,3.9375003E-2,1.3705512E-2],"categories":[],"categories_nodes":[],"categories_segments":[],"categories_sizes":[],"default_left":[1,1,1,1,1,1,1,0,1,1,1,1,1,1,1,1,1,1,1,1,1,1,1,1,1,0,1,0,0,0,0,1,1,1,1,1,0,1,1,1,1,1,1,1,1,0,1,0,1,1,0,0,0,0,0,0,0,0,0,0,0,0,0,0,0,0,0,0,0,0,0,0,0,0,0,0,0,0,0,0,0,0,0],"id":6,"left_children":[1,3,5,7,9,11,13,-1,15,17,19,21,23,25,27,29,31,33,35,37,39,41,43,45,47,-1,49,-1,-1,-1,-1,51,53,55,57,59,-1,61,63,65,67,69,71,73,75,-1,77,-1,79,81,-1,-1,-1,-1,-1,-1,-1,-1,-1,-1,-1,-1,-1,-1,-1,-1,-1,-1,-1,-1,-1,-1,-1,-1,-1,-1,-1,-1,-1,-1,-1,-1,-1],"loss_changes":[4.5539653E-1,1.1147943E-1,8.950704E-2,1.3940334E-2,1.5731111E-2,1.7784223E-2,1.4373124E-2,0E0,4.8636794E-3,2.1918006E-3,2.3948622E-3,1.5563322E-3,2.9401258E-3,7.16418E-4,2.4151802E-4,1.0769665E-3,1.3763197E-3,9.96381E-4,4.4404157E-4,9.142491E-4,5.43146E-4,4.5662792E-4,7.070778E-4,5.1426515E-4,2.1949187E-3,0E0,4.3849647E-4,0E0,0E0,0E0,0E0,5.5180863E-5,1.8756837E-5,1.6598962E-5,1.792442E-4,1.3476331E-4,0E0,4.4273026E-4,5.8135483E-6,4.8029618E-4,1.18298805E-4,3.5411795E-5,2.4132E-4,1.168875E-4,3.3347495E-4,0E0,6.2647276E-5,0E0,4.7475845E-4,4.0970743E-4,0E0,0E0,0E0,0E0,0E0,0E0,0E0,0E0,0E0,0E0,0E0,0E0,0E0,0E0,0E0,0E0,0E0,0E0,0E0,0E0,0E0,0E0,0E0,0E0,0E0,0E0,0E0,0E0,0E0,0E0,0E0,0E0,0E0],"parents":[2147483647,0,0,1,1,2,2,3,3,4,4,5,5,6,6,8,8,9,9,10,10,11,11,12,12,13,13,14,14,15,15,16,16,17,17,18,18,19,19,20,20,21,21,22,22,23,23,24,24,26,26,31,31,32,32,33,33,34,34,35,35,37,37,38,38,39,39,40,40,41,41,42,42,43,43,44,44,46,46,48,48,49,49],"right_children":[2,4,6,8,10,12,14,-1,16,18,20,22,24,26,28,30,32,34,36,38,40,42,44,46,48,-1,50,-1,-1,-1,-1,52,54,56,58,60,-1,62,64,66,68,70,72,74,76,-1,78,-1,80,82,-1,-1,-1,-1,-1,-1,-1,-1,-1,-1,-1,-1,-1,-1,-1,-1,-1,-1,-1,-1,-1,-1,-1,-1,-1,-1,-1,-1,-1,-1,-1,-1,-1],"split_conditions":[5.2079475E-1,2.882801E-1,7.489865E-1,3.599813E-2,4.1545856E-1,6.2120104E-1,6.435363E-1,-2.2068042E-2,2.1157528E-1,3.6154056E-1,4.691816E-1,5.594569E-1,6.675798E-1,1.9476345E-1,3.9673263E-1,4.4924393E-1,4.88644E-1,4.474116E-1,4.880507E-1,5.5197394E-1,5.531006E-1,4.5111638E-1,5.325644E-1,5.663897E-1,4.5786858E-1,5.605015E-3,6.1643517E-1,1.9540558E-2,1.3587962E-2,-1.5794791E-2,-1.1722411E-2,4.0433317E-1,9.929774E-1,2.0996465E-1,7.83167E-2,2.8539133E-1,-6.0378667E-3,2.6519176E-1,8.10843E-1,5.691737E-1,6.0986125E-1,7.687834E-1,5.741261E-1,5.92207E-1,6.6465986E-1,6.916478E-3,7.4401796E-1,1.2477338E-2,8.5025054E-1,9.9234295E-1,7.1458584E-3,-2.8110654E-3,-7.211674E-3,-1.0835479E-2,-5.2956305E-3,-1.374212E-3,-5.0777677E-3,-4.621518E-3,-8.274089E-3,-2.2493498E-3,-3.8335088E-3,1.102742E-3,-1.8963949E-3,-4.561478E-3,-1.2736112E-3,9.87876E-4,-4.0233857E-4,-1.16213414E-4,-2.262962E-3,3.5414442E-3,7.001728E-4,1.5238451E-3,2.4816176E-4,5.5894926E-3,3.5729618E-3,3.0797536E-3,1.5467261E-3,4.758969E-3,3.2203828E-3,7.4124034E-3,4.1869767E-3,1.1812502E-2,4.1116537E-3],"split_indices":[179,179,179,179,179,179,79,0,179,179,179,179,179,141,126,136,159,168,174,172,175,174,173,173,168,0,140,0,0,0,0,0,40,10,65,173,0,172,6,120,0,33,175,22,173,0,169,0,168,41,0,0,0,0,0,0,0,0,0,0,0,0,0,0,0,0,0,0,0,0,0,0,0,0,0,0,0,0,0,0,0,0,0],"split_type":[0,0,0,0,0,0,0,0,0,0,0,0,0,0,0,0,0,0,0,0,0,0,0,0,0,0,0,0,0,0,0,0,0,0,0,0,0,0,0,0,0,0,0,0,0,0,0,0,0,0,0,0,0,0,0,0,0,0,0,0,0,0,0,0,0,0,0,0,0,0,0,0,0,0,0,0,0,0,0,0,0,0,0],"sum_hessian":[1.052E3,5.38E2,5.14E2,1.59E2,3.79E2,3.74E2,1.4E2,1.2E1,1.47E2,1.46E2,2.33E2,1.98E2,1.76E2,9.7E1,4.3E1,8.2E1,6.5E1,6.7E1,7.9E1,1.24E2,1.09E2,8.4E1,1.14E2,7.1E1,1.05E2,5E0,9.2E1,3E1,1.3E1,2E1,6.2E1,3.1E1,3.4E1,3.4E1,3.3E1,6.9E1,1E1,1.11E2,1.3E1,9.5E1,1.4E1,1E1,7.4E1,2.9E1,8.5E1,1.4E1,5.7E1,9E0,9.6E1,8.4E1,8E0,2E0,2.9E1,3.1E1,3E0,1E0,3.3E1,6E0,2.7E1,1.1E1,5.8E1,4E0,1.07E2,1.2E1,1E0,3.4E1,6.1E1,3E0,1.1E1,9E0,1E0,5.6E1,1.8E1,1.2E1,1.7E1,6.5E1,2E1,4.4E1,1.3E1,8.7E1,9E0,8.2E1,2E0],"tree_param":{"num_deleted":"0","num_feature":"180","num_nodes":"83","size_leaf_vector":"0"}},{"base_weights":[1.293929E-3,-1.4304963E-2,1.5316547E-2,-3.0287353E-2,-7.925621E-3,8.620498E-3,2.921876E-2,-5.5709355E-2,-2.7939403E-2,-1.4038639E-2,-4.3360004E-3,3.984338E-3,1.3235465E-2,2.4341807E-2,4.289636E-2,-3.0441111E-2,-1.9170282E-2,-1.6627476E-2,-1.093932E-2,-6.6449726E-3,-2.1468226E-3,1.7827542E-3,5.515336E-3,1.1188794E-2,1.7313141E-2,2.073549E-2,2.9699285E-2,3.613978E-2,5.2296426E-2,-3.6414497E-2,-2.6721673E-2,-1.19984895E-2,-2.0698445E-2,-1.3150598E-2,-2.082496E-2,-9.043014E-3,-1.40622975E-2,-5.858812E-3,-1.1617303E-2,1.2880371E-5,-4.4583096E-3,6.0189506E-3,9.341974E-4,6.924416E-3,3.3737137E-3,2.0163346E-2,1.0257362E-2,2.096779E-2,1.3999181E-2,2.6621796E-2,1.8480053E-2,1.7401597E-2,3.0637303E-2,-3.6874387E-2,-1.015912E-2,-1.6476002E-2,-2.8050357E-2,-1.4318369E-2,-7.407589E-3,-9.302497E-4,-9.218197E-3,-8.898336E-3,-1.5878923E-2,-3.508473E-3,-7.313124E-3,7.4032545E-3,-6.2444294E-4,-4.6765804E-4,-5.4024295E-3,2.838518E-3,8.339533E-3,3.4200044E-3,-3.5708613E-4,8.055388E-3,4.609575E-3,1.5560843E-3,4.7120405E-3,1.0995762E-2,6.5354463E-3,2.1355841E-2,5.439222E-3,1.436007E-2,5.3630075E-3,3.998995E-3,1.8646436E-2,8.190185E-3,3.0947236E-2],"categories":[],"categories_nodes":[],"categories_segments":[],"categories_sizes":[],"default_left":[1,1,1,1,1,1,1,0,1,1,1,1,1,1,1,1,1,1,1,1,1,1,1,1,1,1,1,0,0,1,1,0,0,1,0,1,1,1,0,1,1,1,1,1,1,0,1,1,1,0,1,0,1,0,0,0,0,0,0,0,0,0,0,0,0,0,0,0,0,0,0,0,0,0,0,0,0,0,0,0,0,0,0,0,0,0,0],"id":7,"left_children":[1,3,5,7,9,11,13,-1,15,17,19,21,23,25,27,29,31,33,35,37,39,41,43,45,47,49,51,-1,-1,53,55,-1,-1,57,-1,59,61,63,-1,65,67,69,71,73,75,-1,77,79,81,-1,83,-1,85,-1,-1,-1,-1,-1,-1,-1,-1,-1,-1,-1,-1,-1,-1,-1,-1,-1,-1,-1,-1,-1,-1,-1,-1,-1,-1,-1,-1,-1,-1,-1,-1,-1,-1],"loss_changes":[2.305495E-1,5.063656E-2,5.1413E-2,6.9194436E-3,7.794874E-3,7.992055E-3,1.0962725E-2,0E0,2.3122132E-3,8.772258E-4,1.133163E-3,6.272148E-4,1.3752691E-3,1.9924715E-3,1.031585E-3,1.2709275E-3,1.0235887E-4,7.477291E-4,2.4592783E-4,3.619315E-4,5.891282E-4,2.7835468E-4,3.116054E-4,8.631516E-4,4.452616E-4,6.2322617E-4,6.670877E-5,0E0,0E0,6.007403E-5,4.3631718E-4,0E0,0E0,1.6890327E-4,0E0,5.1116105E-5,6.5085944E-5,3.0590035E-4,0E0,2.966465E-4,2.122299E-4,7.227398E-5,2.1628328E-4,1.3565761E-4,1.04566396E-4,0E0,2.5243312E-4,4.654005E-5,3.207149E-5,0E0,7.963367E-5,0E0,7.352233E-5,0E0,0E0,0E0,0E0,0E0,0E0,0E0,0E0,0E0,0E0,0E0,0E0,0E0,0E0,0E0,0E0,0E0,0E0,0E0,0E0,0E0,0E0,0E0,0E0,0E0,0E0,0E0,0E0,0E0,0E0,0E0,0E0,0E0,0E0],"parents":[2147483647,0,0,1,1,2,2,3,3,4,4,5,5,6,6,8,8,9,9,10,10,11,11,12,12,13,13,14,14,15,15,16,16,17,17,18,18,19,19,20,20,21,21,22,22,23,23,24,24,25,25,26,26,29,29,30,30,33,33,35,35,36,36,37,37,39,39,40,40,41,41,42,42,43,43,44,44,46,46,47,47,48,48,50,50,52,52],"right_children":[2,4,6,8,10,12,14,-1,16,18,20,22,24,26,28,30,32,34,36,38,40,42,44,46,48,50,52,-1,-1,54,56,-1,-1,58,-1,60,62,64,-1,66,68,70,72,74,76,-1,78,80,82,-1,84,-1,86,-1,-1,-1,-1,-1,-1,-1,-1,-1,-1,-1,-1,-1,-1,-1,-1,-1,-1,-1,-1,-1,-1,-1,-1,-1,-1,-1,-1,-1,-1,-1,-1,-1,-1],"split_conditions":[5.036365E-1,2.670957E-1,7.259211E-1,2.519175E-2,4.0482014E-1,5.881176E-1,6.640802E-1,-1.6712807E-2,6.1742574E-1,3.4325343E-1,4.475143E-1,5.3924966E-1,6.718628E-1,8.049752E-1,9.7748095E-1,4.8934823E-1,6.356355E-1,3.7366876E-1,4.263878E-1,5.1061505E-1,4.8106903E-1,4.5639968E-1,5.741261E-1,4.9147162E-1,6.3439035E-1,6.5341544E-1,4.077841E-1,1.0841934E-2,1.5688928E-2,8.533319E-1,2.162283E-1,-3.599547E-3,-6.2095337E-3,6.393485E-1,-6.2474883E-3,1.8585013E-1,4.224552E-1,6.951556E-1,-3.485191E-3,2.6519176E-1,2.240035E-1,6.452675E-1,4.0372175E-1,5.8993906E-1,5.675963E-1,6.049004E-3,7.691382E-1,6.356355E-1,7.880049E-1,7.986539E-3,6.561108E-2,5.2204793E-3,1.4766762E-1,-1.1062317E-2,-3.0477361E-3,-4.942801E-3,-8.415108E-3,-4.295511E-3,-2.2222768E-3,-2.790749E-4,-2.7654592E-3,-2.6695011E-3,-4.7636773E-3,-1.052542E-3,-2.1939373E-3,2.2209764E-3,-1.8733289E-4,-1.4029742E-4,-1.6207289E-3,8.5155544E-4,2.5018598E-3,1.0260014E-3,-1.07125845E-4,2.4166165E-3,1.3828726E-3,4.668253E-4,1.4136122E-3,3.298729E-3,1.960634E-3,6.406753E-3,1.6317667E-3,4.308021E-3,1.6089024E-3,1.1996985E-3,5.593931E-3,2.4570555E-3,9.284171E-3],"split_indices":[179,179,179,179,179,179,77,0,45,179,179,179,179,179,179,140,49,173,175,173,172,175,175,173,158,168,98,0,0,80,75,0,0,64,0,122,68,116,0,171,83,79,3,121,179,0,163,18,20,0,18,0,128,0,0,0,0,0,0,0,0,0,0,0,0,0,0,0,0,0,0,0,0,0,0,0,0,0,0,0,0,0,0,0,0,0,0],"split_type":[0,0,0,0,0,0,0,0,0,0,0,0,0,0,0,0,0,0,0,0,0,0,0,0,0,0,0,0,0,0,0,0,0,0,0,0,0,0,0,0,0,0,0,0,0,0,0,0,0,0,0,0,0,0,0,0,0,0,0,0,0,0,0,0,0,0,0,0,0,0,0,0,0,0,0,0,0,0,0,0,0,0,0,0,0,0,0],"sum_hessian":[1.052E3,4.98E2,5.54E2,1.41E2,3.57E2,3.75E2,1.79E2,1E1,1.31E2,1.31E2,2.26E2,1.88E2,1.87E2,1.34E2,4.5E1,1E2,3.1E1,6.9E1,6.2E1,1.09E2,1.17E2,7.8E1,1.1E2,1.27E2,6E1,8.3E1,5.1E1,2.9E1,1.6E1,3.5E1,6.5E1,7E0,2.4E1,4E1,2.9E1,4.1E1,2.1E1,9.6E1,1.3E1,6.1E1,5.6E1,1.2E1,6.6E1,6.5E1,4.5E1,1E1,1.17E2,2.6E1,3.4E1,2E1,6.3E1,5E0,4.6E1,3.4E1,1E0,9E0,5.6E1,3.2E1,8E0,1E0,4E1,7E0,1.4E1,3.8E1,5.8E1,4E0,5.7E1,1.1E1,4.5E1,6E0,6E0,2.2E1,4.4E1,4.2E1,2.3E1,2E1,2.5E1,9.6E1,2.1E1,2.5E1,1E0,3.2E1,2E0,1E0,6.2E1,1E0,4.5E1],"tree_param":{"num_deleted":"0","num_feature":"180","num_nodes":"87","size_leaf_vector":"0"}},{"base_weights":[9.150539E-4,-1.0705537E-2,1.0483369E-2,-2.158136E-2,-6.063531E-3,4.653795E-3,1.879178E-2,-4.0515892E-2,-1.9839985E-2,-1.1177451E-2,-3.962637E-3,2.4579905E-3,7.827137E-3,1.571E-2,2.9512951E-2,-1.20598115E-2,-2.1371033E-2,-8.404804E-3,-1.3415226E-2,-5.574979E-3,-2.2620575E-3,1.0035734E-2,2.215948E-3,1.1204352E-2,6.3979793E-3,1.3532965E-2,2.1404415E-2,3.4387276E-2,2.1871965E-2,-1.347946E-2,-7.5355824E-3,-2.7654879E-2,-1.8964706E-2,-9.389498E-3,-4.8323795E-3,-1.5480474E-2,-9.336805E-3,-4.8992787E-3,-9.4602285E-3,2.2186432E-3,-2.936127E-3,6.095229E-4,3.4440106E-3,8.168186E-3,1.4831624E-2,3.886558E-3,7.469972E-3,1.2189752E-2,1.8161258E-2,3.9349496E-3,2.168063E-2,1.2442748E-2,3.5510357E-2,2.2955546E-2,1.0986075E-2,-1.6959377E-2,-2.2858486E-2,-1.1018607E-2,-6.766269E-3,-5.4747732E-3,-1.0802746E-3,-8.848508E-3,-1.6348736E-2,-1.03059765E-2,-5.3577423E-3,-5.898823E-3,-3.4132553E-3,-5.329132E-3,-1.0321402E-2,-2.8618425E-4,2.8186946E-3,-2.3564273E-3,-7.1358136E-3,1.1509581E-3,-2.561028E-3,3.827843E-3,4.8376832E-4,3.1924248E-3,8.726989E-3,3.5950243E-3,1.5309222E-2,2.6027134E-3,5.8094063E-3,8.598553E-3,5.9782304E-3,1.4566157E-2,1.0320455E-2,5.226642E-3,1.8436542E-2,2.1918686E-2,5.126953E-3],"categories":[],"categories_nodes":[],"categories_segments":[],"categories_sizes":[],"default_left":[1,1,1,1,1,1,1,0,1,1,1,1,1,1,1,1,1,1,1,1,1,0,1,1,1,1,1,1,1,0,0,0,1,1,1,1,1,1,1,1,1,1,1,1,1,1,1,1,1,0,1,0,0,0,0,0,0,0,0,0,0,0,0,0,0,0,0,0,0,0,0,0,0,0,0,0,0,0,0,0,0,0,0,0,0,0,0,0,0,0,0],"id":8,"left_children":[1,3,5,7,9,11,13,-1,15,17,19,21,23,25,27,29,31,33,35,37,39,-1,41,43,45,47,49,51,53,-1,-1,-1,55,57,59,61,63,65,67,69,71,73,75,77,79,81,83,85,87,-1,89,-1,-1,-1,-1,-1,-1,-1,-1,-1,-1,-1,-1,-1,-1,-1,-1,-1,-1,-1,-1,-1,-1,-1,-1,-1,-1,-1,-1,-1,-1,-1,-1,-1,-1,-1,-1,-1,-1,-1,-1],"loss_changes":[1.1719476E-1,2.3900297E-2,2.7907684E-2,3.878206E-3,3.5548834E-3,2.3568617E-3,7.3999316E-3,0E0,1.3146326E-3,4.8908964E-4,6.4270734E-4,3.5009114E-4,5.992083E-4,2.0285659E-3,1.1846013E-3,5.2571995E-5,1.1237189E-3,1.1644256E-4,2.934551E-4,2.7393387E-4,3.6291004E-4,0E0,3.8851332E-4,3.1937193E-4,2.4018995E-4,6.365329E-4,1.5595369E-4,2.975203E-4,1.911074E-5,0E0,0E0,0E0,2.5261566E-4,7.50185E-5,2.3009692E-5,4.536193E-5,2.1910993E-5,1.3731257E-4,5.474896E-6,2.4855064E-5,2.3394439E-4,1.5229601E-4,1.2540654E-4,3.887096E-5,3.619492E-5,6.3876214E-5,6.476091E-5,3.383141E-4,6.8992376E-6,0E0,8.071773E-5,0E0,0E0,0E0,0E0,0E0,0E0,0E0,0E0,0E0,0E0,0E0,0E0,0E0,0E0,0E0,0E0,0E0,0E0,0E0,0E0,0E0,0E0,0E0,0E0,0E0,0E0,0E0,0E0,0E0,0E0,0E0,0E0,0E0,0E0,0E0,0E0,0E0,0E0,0E0,0E0],"parents":[2147483647,0,0,1,1,2,2,3,3,4,4,5,5,6,6,8,8,9,9,10,10,11,11,12,12,13,13,14,14,15,15,16,16,17,17,18,18,19,19,20,20,22,22,23,23,24,24,25,25,26,26,27,27,28,28,32,32,33,33,34,34,35,35,36,36,37,37,38,38,39,39,40,40,41,41,42,42,43,43,44,44,45,45,46,46,47,47,48,48,50,50],"right_children":[2,4,6,8,10,12,14,-1,16,18,20,22,24,26,28,30,32,34,36,38,40,-1,42,44,46,48,50,52,54,-1,-1,-1,56,58,60,62,64,66,68,70,72,74,76,78,80,82,84,86,88,-1,90,-1,-1,-1,-1,-1,-1,-1,-1,-1,-1,-1,-1,-1,-1,-1,-1,-1,-1,-1,-1,-1,-1,-1,-1,-1,-1,-1,-1,-1,-1,-1,-1,-1,-1,-1,-1,-1,-1,-1,-1],"split_conditions":[4.921394E-1,2.670957E-1,6.7310387E-1,2.519175E-2,3.7359506E-1,5.85131E-1,6.8421865E-1,-1.2154768E-2,4.0882444E-1,3.8981518E-1,4.3910587E-1,2.6519176E-1,5.325644E-1,8.049752E-1,4.2291832E-1,2.294243E-1,4.8692867E-1,6.393485E-1,7.215227E-1,4.7611046E-1,3.9095777E-1,3.0107202E-3,5.346345E-1,6.5750754E-1,6.1623377E-1,5.466887E-1,1.8585013E-1,1.0247392E-3,3.5974044E-1,-4.043838E-3,-2.2606747E-3,-8.296464E-3,7.520607E-1,2.9617396E-1,3.6126962E-1,1.05759904E-1,4.069311E-1,4.1545856E-1,5.119218E-1,5.1074725E-1,5.675124E-1,5.520292E-1,6.396309E-1,2.658027E-1,6.7238085E-2,7.837218E-1,7.3244536E-1,2.6451838E-1,6.561108E-2,1.1804849E-3,9.941845E-1,3.7328245E-3,1.0653107E-2,6.8866643E-3,3.2958225E-3,-5.0878134E-3,-6.857546E-3,-3.305582E-3,-2.0298809E-3,-1.6424321E-3,-3.240824E-4,-2.6545525E-3,-4.9046213E-3,-3.091793E-3,-1.6073227E-3,-1.769647E-3,-1.0239766E-3,-1.5987396E-3,-3.0964208E-3,-8.585528E-5,8.456084E-4,-7.069282E-4,-2.1407441E-3,3.4528744E-4,-7.6830847E-4,1.1483529E-3,1.451305E-4,9.577275E-4,2.6180968E-3,1.0785074E-3,4.592767E-3,7.8081404E-4,1.742822E-3,2.579566E-3,1.7934692E-3,4.3698475E-3,3.0961365E-3,1.5679926E-3,5.5309627E-3,6.5756063E-3,1.538086E-3],"split_indices":[179,179,179,179,179,179,74,0,8,169,179,169,169,179,150,179,143,64,31,175,174,0,179,74,179,123,143,7,116,0,0,0,101,177,179,64,174,179,53,130,173,176,174,94,41,74,16,124,23,0,17,0,0,0,0,0,0,0,0,0,0,0,0,0,0,0,0,0,0,0,0,0,0,0,0,0,0,0,0,0,0,0,0,0,0,0,0,0,0,0,0],"split_type":[0,0,0,0,0,0,0,0,0,0,0,0,0,0,0,0,0,0,0,0,0,0,0,0,0,0,0,0,0,0,0,0,0,0,0,0,0,0,0,0,0,0,0,0,0,0,0,0,0,0,0,0,0,0,0,0,0,0,0,0,0,0,0,0,0,0,0,0,0,0,0,0,0,0,0,0,0,0,0,0,0,0,0,0,0,0,0,0,0,0,0],"sum_hessian":[1.052E3,4.75E2,5.77E2,1.41E2,3.34E2,3.4E2,2.37E2,1E1,1.31E2,9.6E1,2.38E2,2.02E2,1.38E2,1.86E2,5.1E1,2.3E1,1.08E2,4.5E1,5.1E1,1.21E2,1.17E2,5E0,1.97E2,3.9E1,9.9E1,1.37E2,4.9E1,2.9E1,2.2E1,1.6E1,7E0,2.7E1,8.1E1,3.4E1,1.1E1,3.2E1,1.9E1,1.05E2,1.6E1,1.5E1,1.02E2,8.6E1,1.11E2,2.3E1,1.6E1,3.1E1,6.8E1,1.09E2,2.8E1,1E0,4.8E1,2E0,2.7E1,1.9E1,3E0,5.7E1,2.4E1,1.9E1,1.5E1,9E0,2E0,5E0,2.7E1,1.4E1,5E0,6.1E1,4.4E1,4E0,1.2E1,3E0,1.2E1,9.1E1,1.1E1,7.4E1,1.2E1,9.8E1,1.3E1,3E0,2E1,1E0,1.5E1,2E1,1.1E1,3.6E1,3.2E1,4.5E1,6.4E1,1E0,2.7E1,4.7E1,1E0],"tree_param":{"num_deleted":"0","num_feature":"180","num_nodes":"91","size_leaf_vector":"0"}},{"base_weights":[6.4112287E-4,-8.019514E-3,7.1932697E-3,-1.6799262E-2,-5.1292772E-3,4.4071786E-3,1.6316088E-2,-3.149399E-2,-1.536607E-2,-8.510867E-3,-3.126553E-3,2.05337E-3,7.7536465E-3,1.4423065E-2,2.6953075E-2,-1.1652266E-2,-1.7415088E-2,-6.3247597E-3,-1.0498772E-2,-1.9623681E-3,-4.241148E-3,1.0349223E-3,3.8226277E-3,1.3934436E-2,6.985404E-3,1.861852E-2,1.2835348E-2,2.8904129E-2,1.5319085E-2,-1.4571267E-2,-8.601662E-3,-1.35911945E-2,-2.0501837E-2,-7.8027896E-3,-4.9193986E-3,-1.1891428E-2,-6.7707254E-3,-2.6960445E-3,3.3851466E-4,-8.687228E-3,-3.8546452E-3,3.7154853E-3,4.953932E-4,5.8519645E-3,2.5701183E-3,1.5796911E-2,5.1876307E-3,5.5154837E-3,8.130812E-3,8.40203E-3,1.3740272E-2,-2.2917092E-3,-1.5126147E-2,-1.7024353E-3,-8.849128E-3,-1.3895942E-2,-2.0720065E-3,-5.7593435E-3,-2.0774053E-2,-2.816538E-3,-8.067825E-3,-5.431975E-3,-1.5366176E-3,-6.903317E-3,-1.2609722E-2,-4.18451E-3,-7.58021E-3,-4.3457425E-3,-1.0214334E-3,8.8855624E-4,-1.7347237E-3,-9.395008E-3,-1.8663853E-3,-4.6506757E-3,-1.9431189E-3,1.6593635E-3,5.282374E-3,-3.6355124E-3,7.612103E-4,4.5328937E-3,8.557688E-3,3.0752337E-3,5.825545E-4,4.5959353E-3,1.6237248E-2,5.8887126E-3,2.3886561E-3,8.680829E-3,4.036032E-3,8.765E-3,1.1157691E-3,1.457909E-2,9.468981E-3],"categories":[],"categories_nodes":[],"categories_segments":[],"categories_sizes":[],"default_left":[1,1,1,1,1,1,1,0,1,1,1,1,1,1,1,1,1,1,1,1,1,1,1,1,1,0,1,0,0,1,1,1,1,1,1,1,1,1,1,1,1,1,1,1,1,1,0,1,1,1,1,0,0,0,0,0,0,0,0,0,0,0,0,0,0,0,0,0,0,0,0,0,0,0,0,0,0,0,0,0,0,0,0,0,0,0,0,0,0,0,0,0,0],"id":9,"left_children":[1,3,5,7,9,11,13,-1,15,17,19,21,23,25,27,29,31,33,35,37,39,41,43,45,47,-1,49,-1,-1,51,53,55,57,59,61,63,65,67,69,71,73,75,77,79,81,83,-1,85,87,89,91,-1,-1,-1,-1,-1,-1,-1,-1,-1,-1,-1,-1,-1,-1,-1,-1,-1,-1,-1,-1,-1,-1,-1,-1,-1,-1,-1,-1,-1,-1,-1,-1,-1,-1,-1,-1,-1,-1,-1,-1,-1,-1],"loss_changes":[5.9810977E-2,1.143433E-2,1.5178293E-2,1.8748194E-3,2.2963202E-3,3.6153505E-3,2.430305E-3,0E0,5.884804E-4,4.855115E-4,2.732554E-4,4.8615958E-4,8.048471E-4,5.670283E-4,1.1186115E-5,2.3085158E-4,4.885774E-4,9.247661E-5,2.5695935E-4,1.8322776E-4,1.5554042E-4,2.4980548E-4,2.3659447E-4,2.4386519E-4,2.4306122E-4,0E0,2.496289E-4,0E0,0E0,9.4795134E-5,2.2496097E-5,8.354196E-5,1.680199E-5,1.5601167E-5,5.2340794E-5,7.7765435E-5,1.0150601E-5,2.2209459E-4,3.2331318E-5,2.108654E-5,1.4769135E-4,8.4664294E-5,1.6308493E-4,9.326334E-5,6.145731E-5,4.289672E-6,0E0,7.696147E-5,1.7667003E-4,3.7824735E-5,1.2708083E-4,0E0,0E0,0E0,0E0,0E0,0E0,0E0,0E0,0E0,0E0,0E0,0E0,0E0,0E0,0E0,0E0,0E0,0E0,0E0,0E0,0E0,0E0,0E0,0E0,0E0,0E0,0E0,0E0,0E0,0E0,0E0,0E0,0E0,0E0,0E0,0E0,0E0,0E0,0E0,0E0,0E0,0E0],"parents":[2147483647,0,0,1,1,2,2,3,3,4,4,5,5,6,6,8,8,9,9,10,10,11,11,12,12,13,13,14,14,15,15,16,16,17,17,18,18,19,19,20,20,21,21,22,22,23,23,24,24,26,26,29,29,30,30,31,31,32,32,33,33,34,34,35,35,36,36,37,37,38,38,39,39,40,40,41,41,42,42,43,43,44,44,45,45,47,47,48,48,49,49,50,50],"right_children":[2,4,6,8,10,12,14,-1,16,18,20,22,24,26,28,30,32,34,36,38,40,42,44,46,48,-1,50,-1,-1,52,54,56,58,60,62,64,66,68,70,72,74,76,78,80,82,84,-1,86,88,90,92,-1,-1,-1,-1,-1,-1,-1,-1,-1,-1,-1,-1,-1,-1,-1,-1,-1,-1,-1,-1,-1,-1,-1,-1,-1,-1,-1,-1,-1,-1,-1,-1,-1,-1,-1,-1,-1,-1,-1,-1,-1,-1],"split_conditions":[4.8072338E-1,2.298159E-1,7.500722E-1,1.6224565E-2,3.7359506E-1,6.1623377E-1,9.722199E-1,-9.448198E-3,3.4364825E-1,3.7366876E-1,5.992594E-1,5.625825E-1,4.9147162E-1,5.1565343E-1,7.007233E-1,1.490168E-1,6.6854024E-1,5.782634E-1,7.215227E-1,5.5486804E-1,3.0911317E-1,4.352433E-1,5.659863E-1,6.429362E-1,6.7137414E-1,5.5855564E-3,4.0638041E-1,8.671239E-3,4.595726E-3,2.0996465E-1,1.4766762E-1,7.565403E-1,4.914847E-4,3.665198E-1,6.4216673E-1,4.7431982E-1,7.547877E-1,5.4655147E-1,9.4000244E-1,7.5492525E-1,7.7608955E-1,4.5448217E-1,2.096287E-1,7.282733E-1,6.3928664E-1,6.321583E-1,1.5562893E-3,7.03004E-1,8.4110093E-1,8.533319E-1,5.8121645E-1,-6.875128E-4,-4.5378446E-3,-5.107306E-4,-2.6547385E-3,-4.168783E-3,-6.2160194E-4,-1.7278031E-3,-6.2322165E-3,-8.4496144E-4,-2.4203476E-3,-1.6295925E-3,-4.6098532E-4,-2.070995E-3,-3.7829168E-3,-1.2553531E-3,-2.2740632E-3,-1.3037228E-3,-3.0643004E-4,2.6656687E-4,-5.204171E-4,-2.8185025E-3,-5.599156E-4,-1.3952027E-3,-5.829357E-4,4.978091E-4,1.5847123E-3,-1.0906538E-3,2.2836309E-4,1.3598681E-3,2.5673066E-3,9.225701E-4,1.7476635E-4,1.3787807E-3,4.8711747E-3,1.7666138E-3,7.1659684E-4,2.6042487E-3,1.2108097E-3,2.6295E-3,3.3473075E-4,4.3737274E-3,2.8406945E-3],"split_indices":[179,179,179,179,179,179,179,0,162,170,0,179,170,162,38,179,102,84,31,2,86,173,175,105,179,0,148,0,0,19,78,1,42,0,40,9,31,55,137,0,148,94,95,68,176,72,0,176,167,35,141,0,0,0,0,0,0,0,0,0,0,0,0,0,0,0,0,0,0,0,0,0,0,0,0,0,0,0,0,0,0,0,0,0,0,0,0,0,0,0,0,0,0],"split_type":[0,0,0,0,0,0,0,0,0,0,0,0,0,0,0,0,0,0,0,0,0,0,0,0,0,0,0,0,0,0,0,0,0,0,0,0,0,0,0,0,0,0,0,0,0,0,0,0,0,0,0,0,0,0,0,0,0,0,0,0,0,0,0,0,0,0,0,0,0,0,0,0,0,0,0,0,0,0,0,0,0,0,0,0,0,0,0,0,0,0,0,0,0],"sum_hessian":[1.052E3,4.53E2,5.99E2,1.11E2,3.42E2,4.6E2,1.39E2,8E0,1.03E2,1.26E2,2.16E2,2.71E2,1.89E2,1.2E2,1.9E1,3.9E1,6.4E1,6.2E1,6.4E1,1.07E2,1.09E2,1.73E2,9.8E1,1.9E1,1.7E2,3E1,9E1,1.5E1,4E0,1.8E1,2.1E1,3.1E1,3.3E1,2.8E1,3.4E1,4.5E1,1.9E1,8.1E1,2.6E1,7E0,1.02E2,2.8E1,1.45E2,3.6E1,6.2E1,1.5E1,4E0,7.7E1,9.3E1,1.7E1,7.3E1,1E0,1.7E1,1E0,2E1,3E1,1E0,1E0,3.2E1,2E0,2.6E1,2.9E1,5E0,7E0,3.8E1,6E0,1.3E1,4E1,4.1E1,2.1E1,5E0,6E0,1E0,7.1E1,3.1E1,1.3E1,1.5E1,8E0,1.37E2,2.6E1,1E1,4.9E1,1.3E1,1E0,1.4E1,6.8E1,9E0,8.1E1,1.2E1,1.6E1,1E0,5.9E1,1.4E1],"tree_param":{"num_deleted":"0","num_feature":"180","num_nodes":"93","size_leaf_vector":"0"}},{"base_weights":[4.4577743E-4,-4.7250125E-3,6.044882E-3,-1.0596436E-2,-2.3191622E-3,4.0877587E-3,1.223831E-2,-2.3095595E-2,-9.781279E-3,-4.701525E-3,-1.0105252E-3,2.4657724E-3,6.2000295E-3,1.0688482E-2,1.9530516E-2,-1.1846971E-2,-7.5300843E-3,-9.3464255E-3,-4.1849753E-3,9.2957827E-4,-1.4929624E-3,8.302048E-3,2.234993E-3,1.09682875E-2,5.6920303E-3,1.1831949E-2,7.817399E-3,2.1610823E-2,1.2579833E-2,-1.0314066E-2,-1.8008322E-2,-4.5063933E-3,-9.137028E-3,-3.191827E-3,-4.9851337E-3,-1.1001895E-3,1.8889061E-3,-2.5957327E-3,-4.988983E-4,1.2317844E-3,2.8172447E-3,4.4038296E-3,1.2242417E-2,6.3977344E-3,3.6082107E-3,7.7172928E-3,1.3083771E-2,4.0361285E-3,8.534764E-3,-1.3378839E-2,-8.2684895E-3,-5.332475E-3,-2.9605776E-3,-6.860051E-3,-1.0274545E-2,-4.129705E-3,-1.8426088E-3,-5.252065E-3,-5.7138206E-4,2.0415017E-4,-1.8302067E-3,9.774602E-4,3.7886554E-3,-1.9905465E-3,-4.9435636E-3,1.4220774E-3,-1.0646781E-3,1.7036337E-3,-7.620901E-4,3.1720472E-3,6.3626765E-4,2.454171E-3,7.1191024E-3,3.9537167E-3,9.338061E-4,4.1663647E-5,8.141402E-3,1.3420434E-2,2.9992461E-3,4.720664E-3,1.5498599E-3,8.916865E-3,2.6330352E-3],"categories":[],"categories_nodes":[],"categories_segments":[],"categories_sizes":[],"default_left":[1,1,1,1,1,1,1,0,1,1,1,1,1,1,1,1,1,0,1,1,1,0,1,1,1,1,1,0,0,1,0,1,1,1,1,1,1,1,1,1,1,0,0,1,1,1,1,1,1,0,0,0,0,0,0,0,0,0,0,0,0,0,0,0,0,0,0,0,0,0,0,0,0,0,0,0,0,0,0,0,0,0,0],"id":10,"left_children":[1,3,5,7,9,11,13,-1,15,17,19,21,23,25,27,29,31,-1,33,35,37,-1,39,41,43,45,47,-1,-1,49,-1,51,53,55,57,59,61,63,65,67,69,-1,-1,71,73,75,77,79,81,-1,-1,-1,-1,-1,-1,-1,-1,-1,-1,-1,-1,-1,-1,-1,-1,-1,-1,-1,-1,-1,-1,-1,-1,-1,-1,-1,-1,-1,-1,-1,-1,-1,-1],"loss_changes":[3.0514799E-2,7.7163437E-3,6.0833506E-3,1.3941135E-3,1.2111317E-3,1.3071764E-3,1.1587515E-3,0E0,6.1298255E-4,2.9199198E-4,2.3819026E-4,2.777609E-4,3.4208782E-4,2.4237111E-4,1.7330516E-5,5.4150727E-4,3.232425E-4,0E0,8.4217405E-5,1.0138601E-4,2.2123856E-4,0E0,1.2094737E-4,7.154595E-5,2.0191167E-4,2.647359E-4,5.23543E-5,0E0,0E0,2.9060803E-4,0E0,1.9968022E-5,5.384069E-5,6.704929E-5,7.711456E-5,1.656087E-5,5.6899895E-5,1.265636E-4,1.1889375E-4,7.656298E-5,1.0167307E-4,0E0,0E0,3.0398648E-4,3.4192926E-5,6.1511644E-5,1.3968814E-4,4.5971974E-6,3.5153003E-5,0E0,0E0,0E0,0E0,0E0,0E0,0E0,0E0,0E0,0E0,0E0,0E0,0E0,0E0,0E0,0E0,0E0,0E0,0E0,0E0,0E0,0E0,0E0,0E0,0E0,0E0,0E0,0E0,0E0,0E0,0E0,0E0,0E0,0E0],"parents":[2147483647,0,0,1,1,2,2,3,3,4,4,5,5,6,6,8,8,9,9,10,10,11,11,12,12,13,13,14,14,15,15,16,16,18,18,19,19,20,20,22,22,23,23,24,24,25,25,26,26,29,29,31,31,32,32,33,33,34,34,35,35,36,36,37,37,38,38,39,39,40,40,43,43,44,44,45,45,46,46,47,47,48,48],"right_children":[2,4,6,8,10,12,14,-1,16,18,20,22,24,26,28,30,32,-1,34,36,38,-1,40,42,44,46,48,-1,-1,50,-1,52,54,56,58,60,62,64,66,68,70,-1,-1,72,74,76,78,80,82,-1,-1,-1,-1,-1,-1,-1,-1,-1,-1,-1,-1,-1,-1,-1,-1,-1,-1,-1,-1,-1,-1,-1,-1,-1,-1,-1,-1,-1,-1,-1,-1,-1,-1],"split_conditions":[5.2597404E-1,2.8730655E-1,7.593484E-1,1.6224565E-2,4.1205698E-1,6.367394E-1,9.722199E-1,-6.9286786E-3,1.9762631E-1,3.1953233E-1,4.043402E-1,2.6519176E-1,4.9147162E-1,5.2343357E-1,7.007233E-1,2.9446813E-1,4.3101233E-1,-2.8039278E-3,5.7093084E-1,2.0812163E-1,4.631775E-1,2.4906145E-3,5.6355184E-1,1.4766762E-1,7.5636363E-1,4.0908644E-1,5.4327023E-1,6.483247E-3,3.77395E-3,1.03901945E-1,-5.4024966E-3,2.1470955E-1,4.781972E-1,5.356321E-1,6.9852215E-1,7.517947E-2,6.002699E-1,5.11663E-1,4.250086E-1,5.6679237E-1,6.60215E-1,1.321149E-3,3.6727253E-3,3.2263905E-1,8.5392326E-1,1.4766762E-1,9.927974E-1,5.658945E-1,9.927974E-1,-4.013652E-3,-2.480547E-3,-1.5997426E-3,-8.881733E-4,-2.0580154E-3,-3.0823636E-3,-1.2389115E-3,-5.527827E-4,-1.5756196E-3,-1.7141462E-4,6.124505E-5,-5.4906204E-4,2.9323806E-4,1.1365967E-3,-5.97164E-4,-1.4830692E-3,4.2662324E-4,-3.1940342E-4,5.1109015E-4,-2.2862703E-4,9.516142E-4,1.9088031E-4,7.362513E-4,2.1357308E-3,1.1861151E-3,2.8014186E-4,1.2499095E-5,2.4424207E-3,4.0261303E-3,8.9977385E-4,1.4161993E-3,4.64958E-4,2.6750597E-3,7.899106E-4],"split_indices":[179,179,179,179,179,179,179,0,179,84,172,167,170,4,39,171,159,0,96,153,179,0,179,33,170,100,105,0,0,179,0,177,7,91,10,153,65,173,120,177,175,0,0,44,172,116,32,6,14,0,0,0,0,0,0,0,0,0,0,0,0,0,0,0,0,0,0,0,0,0,0,0,0,0,0,0,0,0,0,0,0,0,0],"split_type":[0,0,0,0,0,0,0,0,0,0,0,0,0,0,0,0,0,0,0,0,0,0,0,0,0,0,0,0,0,0,0,0,0,0,0,0,0,0,0,0,0,0,0,0,0,0,0,0,0,0,0,0,0,0,0,0,0,0,0,0,0,0,0,0,0,0,0,0,0,0,0,0,0,0,0,0,0,0,0,0,0,0,0],"sum_hessian":[1.052E3,5.47E2,5.05E2,1.58E2,3.89E2,3.85E2,1.2E2,8E0,1.5E2,1.37E2,2.52E2,2.19E2,1.66E2,1.01E2,1.9E1,7.6E1,7.4E1,1.2E1,1.25E2,5E1,2.02E2,7E0,2.12E2,1.4E1,1.52E2,7E1,3.1E1,1.3E1,6E0,6.3E1,1.3E1,2.7E1,4.7E1,5.8E1,6.7E1,1.6E1,3.4E1,9.5E1,1.07E2,7.9E1,1.33E2,3E0,1.1E1,1.12E2,4E1,1.8E1,5.2E1,6E0,2.5E1,2.3E1,4E1,1.6E1,1.1E1,1.8E1,2.9E1,3.3E1,2.5E1,6.3E1,4E0,6E0,1E1,2.4E1,1E1,7.7E1,1.8E1,2.4E1,8.3E1,6.4E1,1.5E1,1.14E2,1.9E1,1.8E1,9.4E1,3.5E1,5E0,1E0,1.7E1,5E1,2E0,4E0,2E0,2.3E1,2E0],"tree_param":{"num_deleted":"0","num_feature":"180","num_nodes":"83","size_leaf_vector":"0"}},{"base_weights":[3.1432652E-4,-3.804328E-3,3.892033E-3,-8.226308E-3,-2.2180302E-3,2.047751E-3,7.5697037E-3,-1.8357314E-2,-7.582866E-3,-4.1926866E-3,-1.350717E-3,9.895435E-4,3.2766396E-3,6.5851654E-3,1.3196576E-2,-4.1384953E-3,-8.333687E-3,-3.3508355E-3,-5.7630735E-3,1.0641527E-3,-1.6201726E-3,1.8497362E-3,2.804525E-4,2.6254018E-3,5.260878E-3,1.1162782E-2,6.0767233E-3,9.994582E-3,1.5876064E-2,-2.2708557E-3,-5.3103194E-3,-8.969887E-3,-3.3860446E-3,-2.5031846E-3,-4.6540056E-3,-3.3192497E-3,-6.8033384E-3,2.0280166E-3,-1.3580434E-3,-5.8870966E-4,-2.1954551E-3,5.18018E-3,1.5987891E-3,8.6347945E-4,-6.887421E-4,3.264611E-3,1.3863255E-3,4.1243187E-3,7.2394013E-3,5.06856E-3,8.071468E-3,1.0297729E-2,2.8752685E-3,-2.757233E-3,-5.4771703E-5,-2.0979587E-3,-5.995694E-3,-6.7334967E-3,-1.0460337E-2,-7.280931E-4,-4.110621E-3,1.5514046E-3,-2.625054E-3,1.0450184E-4,-4.8341174E-3,-3.4533564E-3,-8.549839E-4,-7.1289656E-3,-2.039085E-3,2.8584518E-3,7.877052E-4,-1.4285708E-3,7.270972E-4,-4.0654778E-3,-1.6133648E-3,6.1209053E-3,2.1991532E-3,1.2035504E-3,3.1554454E-3,1.245749E-3,-1.9083486E-3,-2.2431675E-3,5.961458E-5,1.8361132E-3,3.9472026E-3,3.5632625E-3,9.1627985E-4,2.162218E-3,4.768823E-3,1.9429326E-3,7.4973656E-3,5.9007476E-3,3.2551095E-3,8.7372195E-3,2.9238972E-3],"categories":[],"categories_nodes":[],"categories_segments":[],"categories_sizes":[],"default_left":[1,1,1,1,1,1,1,0,1,1,1,1,1,1,1,1,1,1,1,1,1,1,1,1,1,0,1,1,0,1,1,1,1,1,1,1,1,1,0,1,1,1,1,1,1,1,1,1,1,1,1,0,0,0,0,0,0,0,0,0,0,0,0,0,0,0,0,0,0,0,0,0,0,0,0,0,0,0,0,0,0,0,0,0,0,0,0,0,0,0,0,0,0,0,0],"id":11,"left_children":[1,3,5,7,9,11,13,-1,15,17,19,21,23,25,27,29,31,33,35,37,39,41,43,45,47,-1,49,51,-1,53,55,57,59,61,63,65,67,69,-1,71,73,75,77,79,81,83,85,87,89,91,93,-1,-1,-1,-1,-1,-1,-1,-1,-1,-1,-1,-1,-1,-1,-1,-1,-1,-1,-1,-1,-1,-1,-1,-1,-1,-1,-1,-1,-1,-1,-1,-1,-1,-1,-1,-1,-1,-1,-1,-1,-1,-1,-1,-1],"loss_changes":[1.5531113E-2,3.4188963E-3,3.8099196E-3,7.017134E-4,6.143147E-4,4.870157E-4,9.5459446E-4,0E0,2.836017E-4,1.2611225E-4,1.663513E-4,1.2391203E-4,2.1103269E-4,3.0921446E-4,7.2977506E-5,4.046614E-5,2.8439658E-4,7.009308E-5,7.1480405E-5,6.345549E-5,1.3399875E-4,6.860838E-5,6.444724E-5,1.00814155E-4,6.458815E-5,0E0,2.567214E-4,2.7641654E-6,0E0,1.1705368E-5,1.8244667E-5,2.228897E-4,2.2043634E-5,2.7296657E-5,2.4502922E-5,1.343622E-6,2.4247682E-5,1.7318343E-5,3.1801756E-7,9.276159E-5,1.5236513E-4,3.3651595E-6,4.9729075E-5,7.7607874E-5,5.0154107E-5,7.758447E-5,4.4828244E-5,2.6361668E-5,4.561327E-6,1.3321475E-4,1.389496E-4,0E0,0E0,0E0,0E0,0E0,0E0,0E0,0E0,0E0,0E0,0E0,0E0,0E0,0E0,0E0,0E0,0E0,0E0,0E0,0E0,0E0,0E0,0E0,0E0,0E0,0E0,0E0,0E0,0E0,0E0,0E0,0E0,0E0,0E0,0E0,0E0,0E0,0E0,0E0,0E0,0E0,0E0,0E0,0E0],"parents":[2147483647,0,0,1,1,2,2,3,3,4,4,5,5,6,6,8,8,9,9,10,10,11,11,12,12,13,13,14,14,15,15,16,16,17,17,18,18,19,19,20,20,21,21,22,22,23,23,24,24,26,26,27,27,29,29,30,30,31,31,32,32,33,33,34,34,35,35,36,36,37,37,39,39,40,40,41,41,42,42,43,43,44,44,45,45,46,46,47,47,48,48,49,49,50,50],"right_children":[2,4,6,8,10,12,14,-1,16,18,20,22,24,26,28,30,32,34,36,38,40,42,44,46,48,-1,50,52,-1,54,56,58,60,62,64,66,68,70,-1,72,74,76,78,80,82,84,86,88,90,92,94,-1,-1,-1,-1,-1,-1,-1,-1,-1,-1,-1,-1,-1,-1,-1,-1,-1,-1,-1,-1,-1,-1,-1,-1,-1,-1,-1,-1,-1,-1,-1,-1,-1,-1,-1,-1,-1,-1,-1,-1,-1,-1,-1,-1],"split_conditions":[4.988985E-1,2.5432846E-1,7.185335E-1,9.17114E-3,3.7359506E-1,5.927564E-1,9.52319E-1,-5.5071944E-3,4.0882444E-1,3.8981518E-1,3.495785E-1,5.3995705E-1,7.0587325E-1,6.54244E-1,9.8620164E-1,6.3262963E-1,7.499614E-1,7.3410845E-1,4.2424372E-1,6.5565586E-1,4.1681844E-1,2.6519176E-1,6.614076E-1,5.3791666E-1,5.769708E-1,3.3488348E-3,8.341635E-1,7.3023736E-1,4.7628195E-3,2.300928E-1,2.1276054E-1,6.111953E-1,1.4981702E-1,6.561108E-2,1.4766762E-1,8.533319E-1,9.9578774E-1,2.9822335E-1,-4.0741303E-4,4.3840754E-1,4.386123E-1,5.606898E-1,6.554221E-1,8.1563014E-1,6.9325507E-1,5.735208E-1,4.1204733E-1,2.5520855E-1,1.4766762E-1,4.9741054E-1,9.52319E-1,3.0893188E-3,8.6258055E-4,-8.2717E-4,-1.6431512E-5,-6.293876E-4,-1.7987083E-3,-2.0200491E-3,-3.1381012E-3,-2.1842793E-4,-1.2331863E-3,4.6542138E-4,-7.8751624E-4,3.1350555E-5,-1.4502353E-3,-1.036007E-3,-2.564952E-4,-2.1386899E-3,-6.117255E-4,8.575356E-4,2.3631156E-4,-4.2857128E-4,2.1812918E-4,-1.2196434E-3,-4.8400945E-4,1.8362716E-3,6.59746E-4,3.6106512E-4,9.466337E-4,3.737247E-4,-5.725046E-4,-6.729503E-4,1.7884375E-5,5.50834E-4,1.1841608E-3,1.0689788E-3,2.7488396E-4,6.486655E-4,1.4306469E-3,5.828798E-4,2.2492097E-3,1.7702243E-3,9.765329E-4,2.621166E-3,8.771692E-4],"split_indices":[179,179,179,179,179,179,179,0,9,174,22,174,61,173,179,51,0,110,65,56,173,168,4,60,78,0,179,37,0,17,20,112,79,58,70,14,47,25,0,179,145,0,48,106,140,24,12,0,34,75,176,0,0,0,0,0,0,0,0,0,0,0,0,0,0,0,0,0,0,0,0,0,0,0,0,0,0,0,0,0,0,0,0,0,0,0,0,0,0,0,0,0,0,0,0],"split_type":[0,0,0,0,0,0,0,0,0,0,0,0,0,0,0,0,0,0,0,0,0,0,0,0,0,0,0,0,0,0,0,0,0,0,0,0,0,0,0,0,0,0,0,0,0,0,0,0,0,0,0,0,0,0,0,0,0,0,0,0,0,0,0,0,0,0,0,0,0,0,0,0,0,0,0,0,0,0,0,0,0,0,0,0,0,0,0,0,0,0,0,0,0,0,0],"sum_hessian":[1.052E3,4.89E2,5.63E2,1.28E2,3.61E2,3.76E2,1.87E2,6E0,1.22E2,1.09E2,2.52E2,2.03E2,1.73E2,1.61E2,2.6E1,2.3E1,9.9E1,7.3E1,3.6E1,2.5E1,2.27E2,9.1E1,1.12E2,1.32E2,4.1E1,1.4E1,1.47E2,1.4E1,1.2E1,1E1,1.3E1,8.7E1,1.2E1,4.6E1,2.7E1,1.2E1,2.4E1,1.8E1,7E0,8.2E1,1.45E2,5E0,8.6E1,7E1,4.2E1,8.6E1,4.6E1,2.8E1,1.3E1,1E2,4.7E1,1.3E1,1E0,8E0,2E0,3E0,1E1,3.7E1,5E1,3E0,9E0,1E0,4.5E1,1E0,2.6E1,1.1E1,1E0,2.2E1,2E0,1E1,8E0,5E1,3.2E1,3.3E1,1.12E2,3E0,2E0,7E1,1.6E1,6.2E1,8E0,1.3E1,2.9E1,2.9E1,5.7E1,7E0,3.9E1,8E0,2E1,1E0,1.2E1,6.7E1,3.3E1,4.1E1,6E0],"tree_param":{"num_deleted":"0","num_feature":"180","num_nodes":"95","size_leaf_vector":"0"}},{"base_weights":[2.2653332E-4,-2.3396348E-3,3.19107E-3,-6.717202E-3,-1.4739828E-3,2.005875E-3,5.8820792E-3,-1.3636864E-2,-6.083238E-3,-2.8254865E-3,-4.473875E-4,1.52678E-3,3.2670454E-3,5.229412E-3,1.0980535E-2,-4.914744E-3,-9.121016E-3,-5.5985274E-3,-2.5757821E-3,-3.74467E-3,-3.0616636E-4,2.8948642E-3,1.2108061E-3,7.08946E-3,2.7731026E-3,6.074426E-3,3.8233635E-3,1.2497767E-2,6.3688555E-3,-7.204634E-3,-3.3034463E-3,-1.0386573E-2,-3.8041745E-3,-5.8964896E-3,-5.645454E-4,-3.1843535E-3,-1.8709719E-3,-1.2235269E-3,-4.5371577E-3,-1.4472761E-3,1.41739265E-5,1.7405296E-3,4.0750233E-3,2.0266708E-3,8.059239E-4,3.0885185E-3,3.991127E-4,1.6404589E-3,6.531606E-3,4.1984054E-3,7.590311E-4,-7.854275E-3,-2.9052855E-3,3.4738952E-4,-3.8349195E-3,-2.4990588E-3,-1.0703541E-2,-6.1829155E-3,-9.4326586E-4,-1.1926339E-3,-3.442399E-3,-1.4028804E-3,-3.3421828E-3,-8.1691146E-4,-4.95192E-3,2.9359758E-4,-1.7798065E-3,-1.3564136E-3,4.3311677E-4,2.2190847E-3,8.007884E-4,-2.2941828E-4,4.290921E-3,2.562343E-3,-1.1483828E-6,3.5809708E-4,1.5173802E-3,-1.5953481E-3,3.1745352E-3,-1.8185576E-3,1.0939903E-3,7.8448653E-4,4.244119E-3,3.4248198E-3,7.329602E-3,2.5069031E-3,4.7714235E-3,-1.5676022E-5,2.703637E-3],"categories":[],"categories_nodes":[],"categories_segments":[],"categories_sizes":[],"default_left":[1,1,1,1,1,1,1,0,1,1,1,1,1,1,1,1,1,1,1,1,1,1,1,0,1,1,1,0,0,1,1,1,0,1,0,1,1,0,1,1,1,1,1,1,1,1,1,1,1,1,1,0,0,0,0,0,0,0,0,0,0,0,0,0,0,0,0,0,0,0,0,0,0,0,0,0,0,0,0,0,0,0,0,0,0,0,0,0,0],"id":12,"left_children":[1,3,5,7,9,11,13,-1,15,17,19,21,23,25,27,29,31,33,35,37,39,41,43,-1,45,47,49,-1,-1,51,53,55,-1,57,-1,59,61,-1,63,65,67,69,71,73,75,77,79,81,83,85,87,-1,-1,-1,-1,-1,-1,-1,-1,-1,-1,-1,-1,-1,-1,-1,-1,-1,-1,-1,-1,-1,-1,-1,-1,-1,-1,-1,-1,-1,-1,-1,-1,-1,-1,-1,-1,-1,-1],"loss_changes":[8.018163E-3,2.1311378E-3,1.5478032E-3,3.250176E-4,6.549986E-4,2.01051E-4,4.3838983E-4,0E0,2.6399014E-4,1.2683717E-4,1.2457791E-4,1.041324E-4,1.5592924E-4,1.3598497E-4,3.2355427E-5,2.1603005E-4,1.1524954E-4,2.067018E-5,7.510942E-5,1.6426391E-5,9.50618E-5,5.5573037E-5,6.575379E-5,0E0,6.166607E-5,1.5550875E-4,5.7723722E-5,0E0,0E0,4.980003E-5,7.89451E-5,1.8252758E-5,0E0,1.5448837E-5,0E0,4.7289883E-5,5.7290803E-5,0E0,8.298855E-6,3.3519485E-5,1.17723845E-4,9.4659335E-6,2.142947E-5,7.278143E-5,4.3424705E-5,3.487832E-5,1.8940587E-5,1.6728496E-5,1.583586E-4,3.3593737E-5,1.0587883E-5,0E0,0E0,0E0,0E0,0E0,0E0,0E0,0E0,0E0,0E0,0E0,0E0,0E0,0E0,0E0,0E0,0E0,0E0,0E0,0E0,0E0,0E0,0E0,0E0,0E0,0E0,0E0,0E0,0E0,0E0,0E0,0E0,0E0,0E0,0E0,0E0,0E0,0E0],"parents":[2147483647,0,0,1,1,2,2,3,3,4,4,5,5,6,6,8,8,9,9,10,10,11,11,12,12,13,13,14,14,15,15,16,16,17,17,18,18,19,19,20,20,21,21,22,22,24,24,25,25,26,26,29,29,30,30,31,31,33,33,35,35,36,36,38,38,39,39,40,40,41,41,42,42,43,43,44,44,45,45,46,46,47,47,48,48,49,49,50,50],"right_children":[2,4,6,8,10,12,14,-1,16,18,20,22,24,26,28,30,32,34,36,38,40,42,44,-1,46,48,50,-1,-1,52,54,56,-1,58,-1,60,62,-1,64,66,68,70,72,74,76,78,80,82,84,86,88,-1,-1,-1,-1,-1,-1,-1,-1,-1,-1,-1,-1,-1,-1,-1,-1,-1,-1,-1,-1,-1,-1,-1,-1,-1,-1,-1,-1,-1,-1,-1,-1,-1,-1,-1,-1,-1,-1],"split_conditions":[5.346345E-1,2.0996465E-1,7.455958E-1,9.17114E-3,4.1205698E-1,6.7137414E-1,9.8108226E-1,-4.0910593E-3,2.0812163E-1,2.410413E-1,2.0996465E-1,4.121526E-1,4.2270142E-1,5.196332E-1,6.9576067E-1,1.03901945E-1,6.356355E-1,7.565403E-1,3.343814E-1,4.1157523E-1,2.893177E-1,6.581987E-1,4.42396E-1,2.126838E-3,7.41766E-1,1.5569636E-1,8.524078E-1,3.7493303E-3,1.9106567E-3,6.351878E-1,2.3282203E-1,4.7163165E-1,-1.1412523E-3,7.565403E-1,-1.6936363E-4,3.1953233E-1,8.008788E-1,-3.670581E-4,4.1112596E-1,4.6753025E-1,4.2672563E-1,2.6469135E-1,6.561108E-2,7.3426557E-1,5.9001136E-1,2.6454425E-1,7.445217E-1,7.565403E-1,4.043402E-1,6.1262494E-1,8.533319E-1,-2.3562827E-3,-8.715857E-4,1.0421686E-4,-1.1504759E-3,-7.497177E-4,-3.2110626E-3,-1.8548748E-3,-2.8297977E-4,-3.5779018E-4,-1.0327197E-3,-4.2086415E-4,-1.0026549E-3,-2.4507346E-4,-1.485576E-3,8.807928E-5,-5.3394196E-4,-4.0692408E-4,1.2993504E-4,6.6572544E-4,2.4023654E-4,-6.882549E-5,1.2872764E-3,7.687029E-4,-3.4451486E-7,1.0742913E-4,4.552141E-4,-4.7860446E-4,9.523606E-4,-5.455673E-4,3.281971E-4,2.3534597E-4,1.2732358E-3,1.027446E-3,2.1988805E-3,7.52071E-4,1.4314271E-3,-4.7028066E-6,8.110911E-4],"split_indices":[179,179,179,179,179,179,179,0,175,88,94,166,165,2,39,179,74,14,179,35,61,74,114,0,178,119,172,0,0,69,71,2,0,11,0,10,1,0,33,23,137,158,43,15,111,46,178,36,93,10,34,0,0,0,0,0,0,0,0,0,0,0,0,0,0,0,0,0,0,0,0,0,0,0,0,0,0,0,0,0,0,0,0,0,0,0,0,0,0],"split_type":[0,0,0,0,0,0,0,0,0,0,0,0,0,0,0,0,0,0,0,0,0,0,0,0,0,0,0,0,0,0,0,0,0,0,0,0,0,0,0,0,0,0,0,0,0,0,0,0,0,0,0,0,0,0,0,0,0,0,0,0,0,0,0,0,0,0,0,0,0,0,0,0,0,0,0,0,0,0,0,0,0,0,0,0,0,0,0,0,0],"sum_hessian":[1.052E3,5.64E2,4.88E2,9.2E1,4.72E2,3.4E2,1.48E2,6E0,8.6E1,2.03E2,2.69E2,2.48E2,9.2E1,1.33E2,1.5E1,6.4E1,2.2E1,1.5E1,1.88E2,1E1,2.59E2,4.5E1,2.03E2,9E0,8.3E1,8.1E1,5.2E1,1E1,5E0,2.5E1,3.9E1,1.7E1,5E0,1.4E1,1E0,9.9E1,8.9E1,3E0,7E0,5.6E1,2.03E2,2.4E1,2.1E1,6.6E1,1.37E2,7.3E1,1E1,8E0,7.3E1,4.6E1,6E0,2.1E1,4E0,5E0,3.4E1,1E0,1.6E1,1.3E1,1E0,1.2E1,8.7E1,6.9E1,2E1,1E0,6E0,9E0,4.7E1,4.7E1,1.56E2,1.5E1,9E0,1E0,2E1,5.2E1,1.4E1,8.5E1,5.2E1,1E0,7.2E1,2E0,8E0,7E0,1E0,1.6E1,5.7E1,1.3E1,3.3E1,5E0,1E0],"tree_param":{"num_deleted":"0","num_feature":"180","num_nodes":"89","size_leaf_vector":"0"}},{"base_weights":[1.5649915E-4,-2.1561917E-3,1.8726012E-3,-4.969964E-3,-1.4758767E-3,9.585188E-4,3.8950152E-3,-2.2623842E-3,-5.9076506E-3,-2.335945E-3,-8.8644854E-4,4.117804E-3,8.4694225E-4,3.2003683E-3,6.3851997E-3,-3.16627E-3,9.769847E-4,-7.86927E-3,-4.263516E-3,-1.6228886E-3,-3.1864704E-3,-6.212807E-4,-2.0807714E-3,5.1955106E-3,1.1388302E-3,3.4190182E-4,1.4638769E-3,6.1655403E-3,2.8471982E-3,3.068646E-4,7.2447658E-3,-5.947808E-3,-2.2729936E-3,2.1699716E-3,-1.620017E-4,-5.7862187E-3,-1.1040141E-2,-3.0170754E-3,-6.9353688E-3,-1.4783941E-3,-4.07093E-3,-1.5027812E-3,-3.6951953E-3,-1.4651403E-3,-1.9417355E-4,-1.0572341E-3,-2.8236306E-3,1.3037026E-3,5.483078E-3,1.509669E-4,1.5257559E-3,1.1530616E-3,2.4724745E-3,2.2412539E-3,6.5968726E-3,2.094918E-3,3.495804E-3,-1.9082278E-3,3.158033E-3,8.082015E-3,3.408797E-3,2.1033485E-4,-2.6427787E-3,-6.3592936E-3,-6.1005354E-4,2.054844E-3,-3.2911815E-3,-7.723396E-3,-2.2594978E-3,-1.7636585E-3,4.453903E-4,-2.3159105E-3,-7.0199964E-4,-3.936543E-3,6.444007E-5,1.774331E-3,-1.6074381E-3,-3.5571776E-4,1.1628225E-3,3.5524965E-4,-1.4861758E-3,1.2752414E-4,-3.4865274E-3,2.1471616E-3,-4.2689767E-6,1.9985626E-3,-1.3325512E-3,-2.2660803E-4,1.4669574E-3,1.6882285E-3,3.1763287E-3,1.454562E-3,6.904185E-3,1.345446E-3,2.9789025E-3,5.1583844E-4,3.8660245E-3,-3.3795834E-4,-2.318998E-3,7.9393387E-4,3.9431155E-3,8.641158E-3,3.781724E-3,1.449287E-4,3.85436E-3],"categories":[],"categories_nodes":[],"categories_segments":[],"categories_sizes":[],"default_left":[1,1,1,1,1,1,1,1,1,1,1,1,1,1,1,1,1,1,1,1,1,1,1,1,0,1,1,1,1,1,1,0,1,0,0,1,0,1,1,1,0,1,1,1,1,1,1,0,0,1,1,1,1,0,1,1,1,1,1,1,1,0,0,0,0,0,0,0,0,0,0,0,0,0,0,0,0,0,0,0,0,0,0,0,0,0,0,0,0,0,0,0,0,0,0,0,0,0,0,0,0,0,0,0,0],"id":13,"left_children":[1,3,5,7,9,11,13,15,17,19,21,23,25,27,29,31,33,35,37,39,41,43,45,47,-1,49,51,53,55,57,59,-1,61,-1,-1,63,-1,65,67,69,-1,71,73,75,77,79,81,-1,-1,83,85,87,89,-1,91,93,95,97,99,101,103,-1,-1,-1,-1,-1,-1,-1,-1,-1,-1,-1,-1,-1,-1,-1,-1,-1,-1,-1,-1,-1,-1,-1,-1,-1,-1,-1,-1,-1,-1,-1,-1,-1,-1,-1,-1,-1,-1,-1,-1,-1,-1,-1,-1],"loss_changes":[4.1831983E-3,8.521641E-4,1.1147016E-3,2.0751567E-4,1.8195162E-4,1.4385837E-4,3.0476716E-4,7.336585E-5,1.7285999E-4,8.398021E-5,6.743029E-5,3.9029648E-5,1.2568818E-4,1.3847963E-4,2.0676618E-4,3.3689634E-5,8.504314E-6,1.2106169E-4,1.02296704E-4,2.2987268E-5,5.097827E-5,6.423041E-5,2.6668175E-5,4.0432496E-6,0E0,5.0402417E-5,5.4203847E-5,1.0604854E-5,5.8547594E-5,4.3919852E-5,8.4858155E-5,0E0,1.5248632E-5,0E0,3.1057183E-7,5.2480842E-5,0E0,4.4299493E-5,2.308091E-5,4.41397E-5,0E0,9.443593E-6,4.5622583E-5,3.0510317E-5,2.6719415E-5,1.143368E-5,4.348345E-5,0E0,0E0,6.0126084E-5,4.455742E-5,6.139565E-5,1.782141E-5,0E0,1.0501302E-5,3.9055914E-5,7.633609E-5,1.7963566E-6,2.437464E-6,3.4646946E-5,1.107547E-5,0E0,0E0,0E0,0E0,0E0,0E0,0E0,0E0,0E0,0E0,0E0,0E0,0E0,0E0,0E0,0E0,0E0,0E0,0E0,0E0,0E0,0E0,0E0,0E0,0E0,0E0,0E0,0E0,0E0,0E0,0E0,0E0,0E0,0E0,0E0,0E0,0E0,0E0,0E0,0E0,0E0,0E0,0E0,0E0],"parents":[2147483647,0,0,1,1,2,2,3,3,4,4,5,5,6,6,7,7,8,8,9,9,10,10,11,11,12,12,13,13,14,14,15,15,16,16,17,17,18,18,19,19,20,20,21,21,22,22,23,23,25,25,26,26,27,27,28,28,29,29,30,30,32,32,35,35,37,37,38,38,39,39,41,41,42,42,43,43,44,44,45,45,46,46,49,49,50,50,51,51,52,52,54,54,55,55,56,56,57,57,58,58,59,59,60,60],"right_children":[2,4,6,8,10,12,14,16,18,20,22,24,26,28,30,32,34,36,38,40,42,44,46,48,-1,50,52,54,56,58,60,-1,62,-1,-1,64,-1,66,68,70,-1,72,74,76,78,80,82,-1,-1,84,86,88,90,-1,92,94,96,98,100,102,104,-1,-1,-1,-1,-1,-1,-1,-1,-1,-1,-1,-1,-1,-1,-1,-1,-1,-1,-1,-1,-1,-1,-1,-1,-1,-1,-1,-1,-1,-1,-1,-1,-1,-1,-1,-1,-1,-1,-1,-1,-1,-1,-1,-1],"split_conditions":[4.789972E-1,1.9867685E-1,7.185335E-1,4.1539043E-1,3.6962852E-1,1.5909246E-1,9.0065247E-1,1.4766762E-1,4.8692867E-1,3.6037844E-1,5.009043E-1,4.380494E-1,5.85131E-1,6.54244E-1,1.5409961E-1,2.1114875E-1,2.5395276E-3,7.374849E-1,1.9138652E-1,3.414958E-1,3.1032318E-1,2.825517E-1,5.410439E-1,4.914847E-4,3.4164908E-4,8.1233215E-1,7.0587325E-1,1.4766762E-1,6.982797E-1,7.5636363E-1,9.888588E-1,-1.7843425E-3,2.1114875E-1,6.509915E-4,-4.8600512E-5,5.517951E-1,-3.3120424E-3,4.1112596E-1,8.527061E-1,3.379573E-1,-1.2212791E-3,5.010848E-1,9.942681E-1,3.414958E-1,8.533319E-1,5.2039325E-1,3.1869334E-1,3.911108E-4,1.6449235E-3,1.801888E-1,7.484698E-1,4.4327918E-1,4.0554637E-1,6.723762E-4,4.914847E-4,6.7762816E-1,4.0372175E-1,1.235247E-1,1.6443405E-1,4.1007912E-1,1.4766762E-1,6.310046E-5,-7.928336E-4,-1.9077881E-3,-1.8301606E-4,6.1645324E-4,-9.873545E-4,-2.317019E-3,-6.7784934E-4,-5.2909757E-4,1.336171E-4,-6.9477316E-4,-2.105999E-4,-1.180963E-3,1.9332023E-5,5.3229934E-4,-4.8223144E-4,-1.0671533E-4,3.4884675E-4,1.065749E-4,-4.4585275E-4,3.8257243E-5,-1.0459583E-3,6.441485E-4,-1.280693E-6,5.995688E-4,-3.9976538E-4,-6.798241E-5,4.4008723E-4,5.064686E-4,9.5289864E-4,4.363686E-4,2.0712556E-3,4.036338E-4,8.936708E-4,1.5475154E-4,1.1598074E-3,-1.0138751E-4,-6.956995E-4,2.3818018E-4,1.1829347E-3,2.5923476E-3,1.1345173E-3,4.347861E-5,1.156308E-3],"split_indices":[179,179,179,12,179,29,177,175,136,171,174,165,179,173,127,22,35,98,176,178,70,60,60,18,0,53,61,28,38,46,53,0,16,0,0,44,0,7,74,179,0,18,43,176,136,96,29,0,0,39,7,33,2,0,12,1,90,0,0,121,11,0,0,0,0,0,0,0,0,0,0,0,0,0,0,0,0,0,0,0,0,0,0,0,0,0,0,0,0,0,0,0,0,0,0,0,0,0,0,0,0,0,0,0,0],"split_type":[0,0,0,0,0,0,0,0,0,0,0,0,0,0,0,0,0,0,0,0,0,0,0,0,0,0,0,0,0,0,0,0,0,0,0,0,0,0,0,0,0,0,0,0,0,0,0,0,0,0,0,0,0,0,0,0,0,0,0,0,0,0,0,0,0,0,0,0,0,0,0,0,0,0,0,0,0,0,0,0,0,0,0,0,0,0,0,0,0,0,0,0,0,0,0,0,0,0,0,0,0,0,0,0,0],"sum_hessian":[1.052E3,4.48E2,6.04E2,8.6E1,3.62E2,4.17E2,1.87E2,2.3E1,6.3E1,1.46E2,2.16E2,1.3E1,4.04E2,1.48E2,3.9E1,1.8E1,5E0,2.7E1,3.6E1,8.1E1,6.5E1,1.78E2,3.8E1,9E0,4E0,2.23E2,1.81E2,1.4E1,1.34E2,5E0,3.4E1,3E0,1.5E1,2E0,3E0,1.8E1,9E0,2.6E1,1E1,7.8E1,3E0,1.6E1,4.9E1,5.9E1,1.19E2,1.7E1,2.1E1,1E0,8E0,1.93E2,3E1,1.4E2,4.1E1,2E0,1.2E1,6.4E1,7E1,3E0,2E0,2.7E1,7E0,2E0,1.3E1,1.6E1,2E0,1E0,2.5E1,8E0,2E0,6.8E1,1E1,7E0,9E0,4.6E1,3E0,2E0,5.7E1,1.07E2,1.2E1,4E0,1.3E1,4E0,1.7E1,1.3E1,1.8E2,2.6E1,4E0,2.6E1,1.14E2,2.1E1,2E1,1E0,1.1E1,3.6E1,2.8E1,8E0,6.2E1,1E0,2E0,1E0,1E0,2.3E1,4E0,1E0,6E0],"tree_param":{"num_deleted":"0","num_feature":"180","num_nodes":"105","size_leaf_vector":"0"}},{"base_weights":[1.1047958E-4,-1.6362177E-3,1.2812284E-3,-3.5257519E-3,-1.1003782E-3,6.408258E-4,2.7868536E-3,-7.824054E-3,-3.1393857E-3,-1.5791651E-3,-6.376496E-4,2.830121E-3,5.362923E-4,1.9351303E-3,3.9631925E-3,-2.4337624E-3,-4.9970434E-3,-2.66828E-3,-1.3316763E-3,1.2069688E-3,-7.8538625E-4,5.282521E-4,3.3725724E-3,9.1905684E-5,9.4223185E-4,1.5627375E-3,3.4566834E-3,8.340468E-3,3.549126E-3,-3.4838947E-3,-1.0100154E-3,-5.841455E-3,-2.2324664E-3,-3.731834E-3,-1.5709028E-3,6.041848E-6,-1.6385479E-3,6.181747E-5,1.5443325E-3,1.0806739E-3,-9.0535416E-4,-8.1428763E-4,3.759542E-4,2.6841026E-3,8.2991493E-4,1.9970955E-3,3.3614875E-4,-1.8045306E-3,3.8099706E-3,8.593214E-3,3.1321757E-3,-4.348057E-3,-1.5540525E-3,-2.480858E-3,-3.315583E-4,-9.2715025E-4,-6.090652E-3,-2.867487E-3,-4.299432E-4,-2.1129847E-4,-3.986391E-3,-1.5172362E-4,-2.0313188E-3,-5.7172205E-4,2.0272087E-3,-2.0608655E-3,-8.585282E-4,2.5437672E-3,9.765029E-4,-2.2023916E-4,1.6696708E-3,-1.1440475E-3,-3.164284E-5,3.8159595E-4,-1.4056735E-3,-1.152357E-3,5.8364955E-4,-1.4058352E-3,3.1420838E-3,5.368579E-4,1.5886703E-3,3.1018318E-3,1.0723801E-3,-1.0686517E-3,1.0600932E-3,-8.404553E-4,4.0989644E-3,3.6260732E-3,4.8398972E-4],"categories":[],"categories_nodes":[],"categories_segments":[],"categories_sizes":[],"default_left":[1,1,1,1,1,1,1,0,1,1,1,1,1,1,1,1,1,1,1,1,1,0,0,1,1,1,1,0,1,1,1,1,1,1,1,1,1,0,1,1,1,1,1,1,1,1,1,0,1,0,1,0,0,0,0,0,0,0,0,0,0,0,0,0,0,0,0,0,0,0,0,0,0,0,0,0,0,0,0,0,0,0,0,0,0,0,0,0,0],"id":14,"left_children":[1,3,5,7,9,11,13,-1,15,17,19,21,23,25,27,29,31,33,35,37,39,-1,-1,41,43,45,47,-1,49,51,53,55,57,59,61,63,65,-1,67,69,71,73,75,77,79,81,83,-1,85,-1,87,-1,-1,-1,-1,-1,-1,-1,-1,-1,-1,-1,-1,-1,-1,-1,-1,-1,-1,-1,-1,-1,-1,-1,-1,-1,-1,-1,-1,-1,-1,-1,-1,-1,-1,-1,-1,-1,-1],"loss_changes":[2.1554222E-3,4.244023E-4,6.0662813E-4,1.2988411E-4,7.232555E-5,1.00093675E-4,1.8069078E-4,0E0,1.018786E-4,4.011282E-5,4.727595E-5,2.3191475E-5,7.6580895E-5,5.7492405E-5,1.1177233E-4,9.366419E-5,4.065124E-5,2.7984119E-5,5.5017925E-5,4.9268547E-6,3.6349433E-5,1.06429184E-7,7.0747046E-7,5.281632E-5,4.1204854E-5,4.781154E-5,4.5908324E-5,0E0,1.2661325E-4,5.494771E-5,2.8116656E-5,1.5171827E-5,6.779621E-6,1.1704149E-5,1.014641E-5,3.152069E-5,3.4137018E-5,1.1293926E-7,3.1910913E-6,8.030063E-6,3.103762E-5,3.5190602E-5,5.019058E-5,2.8767725E-5,4.584242E-5,6.51186E-5,2.6557804E-5,0E0,3.0323892E-5,0E0,8.849229E-5,0E0,0E0,0E0,0E0,0E0,0E0,0E0,0E0,0E0,0E0,0E0,0E0,0E0,0E0,0E0,0E0,0E0,0E0,0E0,0E0,0E0,0E0,0E0,0E0,0E0,0E0,0E0,0E0,0E0,0E0,0E0,0E0,0E0,0E0,0E0,0E0,0E0,0E0],"parents":[2147483647,0,0,1,1,2,2,3,3,4,4,5,5,6,6,8,8,9,9,10,10,11,11,12,12,13,13,14,14,15,15,16,16,17,17,18,18,19,19,20,20,23,23,24,24,25,25,26,26,28,28,29,29,30,30,31,31,32,32,33,33,34,34,35,35,36,36,38,38,39,39,40,40,41,41,42,42,43,43,44,44,45,45,46,46,48,48,50,50],"right_children":[2,4,6,8,10,12,14,-1,16,18,20,22,24,26,28,30,32,34,36,38,40,-1,-1,42,44,46,48,-1,50,52,54,56,58,60,62,64,66,-1,68,70,72,74,76,78,80,82,84,-1,86,-1,88,-1,-1,-1,-1,-1,-1,-1,-1,-1,-1,-1,-1,-1,-1,-1,-1,-1,-1,-1,-1,-1,-1,-1,-1,-1,-1,-1,-1,-1,-1,-1,-1,-1,-1,-1,-1,-1,-1],"split_conditions":[4.6438864E-1,2.0996465E-1,7.185335E-1,9.17114E-3,3.8893685E-1,1.8183649E-1,6.8069243E-1,-2.3472162E-3,2.0812163E-1,4.706539E-1,3.6601067E-1,4.1347995E-1,5.640887E-1,8.5406476E-1,1.5409961E-1,4.9985492E-1,6.3530064E-1,6.762524E-1,5.091015E-1,5.873431E-1,1.5569636E-1,1.5847564E-4,1.0117717E-3,4.2749253E-1,3.5115987E-1,7.4067956E-1,4.1025573E-1,2.5021404E-3,7.1718276E-1,5.4087037E-1,2.4256328E-1,1.8585013E-1,6.821637E-1,1.4766762E-1,6.9492745E-1,5.2139854E-1,7.142448E-1,1.854524E-5,6.041599E-1,1.4766762E-1,6.8713856E-1,4.7250587E-1,2.2395992E-1,2.0996465E-1,7.007114E-1,4.2528382E-1,7.252027E-1,-5.413592E-4,4.1025573E-1,2.5779642E-3,4.915985E-1,-1.3044172E-3,-4.6621574E-4,-7.442574E-4,-9.946749E-5,-2.7814507E-4,-1.8271958E-3,-8.6024613E-4,-1.2898297E-4,-6.338954E-5,-1.1959173E-3,-4.551709E-5,-6.093957E-4,-1.7151661E-4,6.081626E-4,-6.1825966E-4,-2.5755848E-4,7.631302E-4,2.929509E-4,-6.607175E-5,5.0090125E-4,-3.4321425E-4,-9.492853E-6,1.1447879E-4,-4.2170205E-4,-3.457071E-4,1.7509487E-4,-4.2175056E-4,9.4262516E-4,1.6105737E-4,4.766011E-4,9.305496E-4,3.2171403E-4,-3.205955E-4,3.1802797E-4,-2.521366E-4,1.2296893E-3,1.087822E-3,1.4519691E-4],"split_indices":[179,179,179,179,179,27,62,0,175,97,10,64,179,32,139,133,74,35,99,57,43,0,0,144,59,46,2,0,59,37,54,78,97,92,34,97,95,0,57,43,40,175,94,123,60,131,51,0,5,0,147,0,0,0,0,0,0,0,0,0,0,0,0,0,0,0,0,0,0,0,0,0,0,0,0,0,0,0,0,0,0,0,0,0,0,0,0,0,0],"split_type":[0,0,0,0,0,0,0,0,0,0,0,0,0,0,0,0,0,0,0,0,0,0,0,0,0,0,0,0,0,0,0,0,0,0,0,0,0,0,0,0,0,0,0,0,0,0,0,0,0,0,0,0,0,0,0,0,0,0,0,0,0,0,0,0,0,0,0,0,0,0,0,0,0,0,0,0,0,0,0,0,0,0,0,0,0,0,0,0,0],"sum_hessian":[1.052E3,4.22E2,6.3E2,9.2E1,3.3E2,4.43E2,1.87E2,6E0,8.6E1,1.61E2,1.69E2,1.9E1,4.24E2,1.1E2,7.7E1,6.4E1,2.2E1,2.8E1,1.33E2,1.2E1,1.57E2,4E0,1.5E1,2.03E2,2.21E2,9E1,2E1,5E0,7.2E1,3.6E1,2.8E1,1.6E1,6E0,1.3E1,1.5E1,2.5E1,1.08E2,3E0,9E0,9E0,1.48E2,4.8E1,1.55E2,1.2E1,2.09E2,6.6E1,2.4E1,1E0,1.9E1,4E0,6.8E1,2.4E1,1.2E1,8E0,2E1,1E0,1.5E1,4E0,2E0,1E0,1.2E1,4E0,1.1E1,2E1,5E0,6.9E1,3.9E1,2E0,7E0,3E0,6E0,1.16E2,3.2E1,1.6E1,3.2E1,1.8E1,1.37E2,1E0,1.1E1,1.52E2,5.7E1,2.9E1,3.7E1,8E0,1.6E1,1E0,1.8E1,5.7E1,1.1E1],"tree_param":{"num_deleted":"0","num_feature":"180","num_nodes":"89","size_leaf_vector":"0"}},{"base_weights":[7.7899036E-5,-8.776272E-4,1.1902306E-3,-2.406091E-3,-5.002904E-4,9.421683E-4,3.0826E-3,-6.565365E-3,-2.1912532E-3,-9.4243075E-4,-1.5732057E-4,5.7335506E-4,1.4504488E-3,6.2553487E-3,2.6488923E-3,-1.0474093E-3,-2.578506E-3,-1.8930018E-3,-7.4205815E-4,2.6441094E-5,-1.4559636E-3,1.9190172E-3,4.739923E-4,3.7583837E-3,1.2494872E-3,4.379526E-3,1.8061416E-3,-2.3144286E-3,-1.4454043E-4,-2.8793558E-3,-8.064841E-4,-2.29737E-3,3.7694475E-4,-2.3515057E-4,-1.0498255E-3,8.443835E-4,-1.5839774E-4,4.0926412E-4,-1.994598E-3,2.1670546E-4,2.8278502E-3,1.0022778E-3,2.312492E-4,1.2429059E-3,4.331432E-3,-1.1353116E-4,1.4138062E-3,2.9611404E-3,7.894397E-3,-1.2680391E-3,2.3428816E-3,-4.9797185E-3,-8.7269646E-4,2.2266358E-3,-4.1499996E-4,1.3252447E-3,-3.0268475E-3,-3.021794E-4,-3.42907E-3,-9.3851343E-4,-2.6110495E-3,-1.9806623E-4,1.0179778E-3,6.745896E-4,-5.5245124E-4,-2.0702456E-3,-6.412653E-4,9.923228E-4,-2.6105642E-3,2.8241889E-4,-7.333134E-4,6.7720667E-4,-7.3316693E-4,-3.2991408E-3,-1.0545962E-3,-8.544922E-4,5.3765374E-4,1.9043684E-5,3.1068265E-3,1.699527E-4,1.3743078E-3,3.1968683E-4,-1.5221909E-3,6.9245696E-4,4.626083E-3,7.3797506E-4,-1.3765991E-3,-1.7017499E-4,1.5910647E-3,-1.2686253E-3,3.4193397E-3,3.3514863E-3,8.787555E-4],"categories":[],"categories_nodes":[],"categories_segments":[],"categories_sizes":[],"default_left":[1,1,1,1,1,1,1,0,1,1,1,1,1,0,1,1,1,1,1,1,1,1,1,1,1,1,1,1,1,1,1,1,1,1,1,1,1,1,1,1,1,1,1,0,1,1,1,1,0,0,1,0,0,0,0,0,0,0,0,0,0,0,0,0,0,0,0,0,0,0,0,0,0,0,0,0,0,0,0,0,0,0,0,0,0,0,0,0,0,0,0,0,0],"id":15,"left_children":[1,3,5,7,9,11,13,-1,15,17,19,21,23,-1,25,27,29,31,33,35,37,39,41,43,45,47,49,51,53,55,57,59,61,63,65,67,69,71,73,75,77,79,81,-1,83,85,87,89,-1,-1,91,-1,-1,-1,-1,-1,-1,-1,-1,-1,-1,-1,-1,-1,-1,-1,-1,-1,-1,-1,-1,-1,-1,-1,-1,-1,-1,-1,-1,-1,-1,-1,-1,-1,-1,-1,-1,-1,-1,-1,-1,-1,-1],"loss_changes":[1.1202382E-3,3.2581095E-4,2.2570585E-4,8.569332E-5,6.899996E-5,8.015134E-5,6.048882E-5,0E0,4.5138586E-5,3.6498473E-5,6.1607825E-5,3.2784985E-5,7.925287E-5,0E0,6.647306E-5,3.284009E-5,4.032685E-5,3.207437E-5,2.565072E-5,3.4453315E-5,3.2965938E-5,2.5688183E-5,3.0032312E-5,1.4797275E-5,3.7787453E-5,5.639065E-5,6.237217E-5,4.1765823E-5,1.24675835E-5,4.6181027E-5,1.6157377E-5,9.9106255E-6,2.4132335E-6,1.8846993E-5,4.1613428E-5,2.4057676E-5,4.7345522E-5,2.945353E-6,2.717755E-5,2.8660145E-6,8.5603315E-6,2.2680535E-5,2.5763053E-5,0E0,8.591189E-6,2.1450587E-5,4.2386906E-5,2.9532843E-5,0E0,1.0590156E-7,4.2833315E-5,0E0,0E0,0E0,0E0,0E0,0E0,0E0,0E0,0E0,0E0,0E0,0E0,0E0,0E0,0E0,0E0,0E0,0E0,0E0,0E0,0E0,0E0,0E0,0E0,0E0,0E0,0E0,0E0,0E0,0E0,0E0,0E0,0E0,0E0,0E0,0E0,0E0,0E0,0E0,0E0,0E0,0E0],"parents":[2147483647,0,0,1,1,2,2,3,3,4,4,5,5,6,6,8,8,9,9,10,10,11,11,12,12,14,14,15,15,16,16,17,17,18,18,19,19,20,20,21,21,22,22,23,23,24,24,25,25,26,26,27,27,28,28,29,29,30,30,31,31,32,32,33,33,34,34,35,35,36,36,37,37,38,38,39,39,40,40,41,41,42,42,44,44,45,45,46,46,47,47,50,50],"right_children":[2,4,6,8,10,12,14,-1,16,18,20,22,24,-1,26,28,30,32,34,36,38,40,42,44,46,48,50,52,54,56,58,60,62,64,66,68,70,72,74,76,78,80,82,-1,84,86,88,90,-1,-1,92,-1,-1,-1,-1,-1,-1,-1,-1,-1,-1,-1,-1,-1,-1,-1,-1,-1,-1,-1,-1,-1,-1,-1,-1,-1,-1,-1,-1,-1,-1,-1,-1,-1,-1,-1,-1,-1,-1,-1,-1,-1,-1],"split_conditions":[5.3601307E-1,2.298159E-1,8.5253024E-1,4.0903557E-3,4.173313E-1,6.743458E-1,1.5409961E-1,-1.9696096E-3,3.2975852E-1,4.3270496E-1,5.68364E-1,1.5993017E-1,4.2402962E-1,1.8766046E-3,8.980284E-1,2.1944796E-1,8.379742E-1,9.874901E-1,5.7999706E-1,3.6937064E-1,5.188334E-1,4.0401947E-1,5.190273E-1,3.9243814E-1,2.156843E-1,8.8053834E-1,9.161621E-1,7.429118E-1,2.2222903E-1,1.8585013E-1,7.565403E-1,2.7641803E-1,7.343582E-1,4.1112596E-1,6.2148535E-1,8.5578597E-1,4.7135425E-1,8.533319E-1,4.9349746E-1,6.561108E-2,6.561108E-2,4.4361246E-1,7.514126E-1,3.728718E-4,4.914847E-4,4.9741054E-1,3.6154056E-1,1.6699696E-1,2.368319E-3,-3.8041174E-4,9.8108226E-1,-1.4939156E-3,-2.6180895E-4,6.6799077E-4,-1.2449999E-4,3.9757343E-4,-9.080543E-4,-9.065382E-5,-1.0287211E-3,-2.8155404E-4,-7.8331487E-4,-5.9419872E-5,3.0539336E-4,2.0237689E-4,-1.6573537E-4,-6.210737E-4,-1.923796E-4,2.9769685E-4,-7.831693E-4,8.472567E-5,-2.1999402E-4,2.0316201E-4,-2.1995009E-4,-9.897423E-4,-3.1637886E-4,-2.5634767E-4,1.6129614E-4,5.7131056E-6,9.3204796E-4,5.0985815E-5,4.1229234E-4,9.5906056E-5,-4.566573E-4,2.077371E-4,1.387825E-3,2.2139253E-4,-4.1297975E-4,-5.10525E-5,4.7731944E-4,-3.805876E-4,1.025802E-3,1.005446E-3,2.6362666E-4],"split_indices":[179,179,179,179,179,179,139,0,17,94,173,9,166,0,179,20,115,49,92,171,56,134,170,169,144,179,178,85,20,62,0,104,0,60,92,78,28,22,179,9,5,92,107,0,12,97,43,23,0,0,172,0,0,0,0,0,0,0,0,0,0,0,0,0,0,0,0,0,0,0,0,0,0,0,0,0,0,0,0,0,0,0,0,0,0,0,0,0,0,0,0,0,0],"split_type":[0,0,0,0,0,0,0,0,0,0,0,0,0,0,0,0,0,0,0,0,0,0,0,0,0,0,0,0,0,0,0,0,0,0,0,0,0,0,0,0,0,0,0,0,0,0,0,0,0,0,0,0,0,0,0,0,0,0,0,0,0,0,0,0,0,0,0,0,0,0,0,0,0,0,0,0,0,0,0,0,0,0,0,0,0,0,0,0,0,0,0,0,0],"sum_hessian":[1.052E3,5.66E2,4.86E2,1.11E2,4.55E2,4.31E2,5.5E1,4E0,1.07E2,1.98E2,2.57E2,2.51E2,1.8E2,5E0,5E1,2.8E1,7.9E1,3.3E1,1.65E2,2.26E2,3.1E1,1.6E1,2.35E2,1.3E1,1.67E2,1.5E1,3.5E1,1.1E1,1.7E1,6.7E1,1.2E1,2.8E1,5E0,6.3E1,1.02E2,4.1E1,1.85E2,7E0,2.4E1,6E0,1E1,7.3E1,1.62E2,3E0,1E1,1.8E1,1.49E2,1.2E1,3E0,5E0,3E1,3E0,8E0,1E0,1.6E1,2E0,6.5E1,1.1E1,1E0,6E0,2.2E1,3E0,2E0,1.6E1,4.7E1,2.8E1,7.4E1,4E1,1E0,1.05E2,8E1,6E0,1E0,9E0,1.5E1,1E0,5E0,1E0,9E0,2.3E1,5E1,1.55E2,7E0,1E0,9E0,1.1E1,7E0,1.5E1,1.34E2,1E0,1.1E1,1.7E1,1.3E1],"tree_param":{"num_deleted":"0","num_feature":"180","num_nodes":"93","size_leaf_vector":"0"}},{"base_weights":[5.5078886E-5,-8.5762714E-4,6.572344E-4,-2.5219375E-3,-6.753201E-4,4.2396339E-4,1.8173889E-3,-1.864028E-3,-4.654057E-3,-2.014323E-3,-5.791218E-4,1.4067478E-4,8.163608E-4,1.6485702E-3,5.710125E-3,-8.712453E-4,-3.7703894E-3,9.676963E-4,-2.1788944E-3,-7.518205E-4,-4.1114636E-6,7.1591523E-4,-2.7689834E-5,1.007243E-3,-7.280803E-4,5.040252E-3,1.4606209E-3,-1.4447201E-3,1.482208E-3,1.2094043E-3,-4.3893093E-3,-2.3790048E-3,1.4881293E-5,-3.0391885E-4,-1.2279585E-3,-1.3783593E-4,1.7349919E-3,-1.8921352E-4,1.081751E-3,3.2592972E-4,-4.9324933E-4,8.9559605E-4,3.0166446E-3,-1.1728832E-3,1.2857079E-3,5.026594E-3,1.2968238E-3,-3.6125064E-3,-6.2580995E-4,1.954278E-3,-2.0303577E-4,-4.7543515E-3,-5.519651E-4,-2.592539E-3,-1.6244252E-4,-7.9874013E-4,-5.070473E-5,-2.100075E-3,-8.2595064E-4,-7.621189E-4,2.471911E-4,1.5057127E-4,2.4895594E-3,1.530542E-4,-1.3150811E-3,7.971473E-4,2.0183325E-3,1.2050644E-3,5.7455785E-5,7.3862076E-4,-6.7734753E-4,-6.4667786E-4,9.853693E-4,3.5508722E-3,5.8648986E-4,-2.126284E-3,-5.4430537E-4,4.351139E-4,1.7077327E-3,5.9470534E-3,1.1326075E-3,6.0048583E-4,2.0726628E-3],"categories":[],"categories_nodes":[],"categories_segments":[],"categories_sizes":[],"default_left":[1,1,1,1,1,1,1,1,0,1,1,1,1,1,0,1,1,0,1,1,1,1,1,1,1,0,1,1,1,0,1,1,0,1,1,1,1,1,1,1,1,1,1,1,1,1,1,0,0,0,0,0,0,0,0,0,0,0,0,0,0,0,0,0,0,0,0,0,0,0,0,0,0,0,0,0,0,0,0,0,0,0,0],"id":16,"left_children":[1,3,5,7,9,11,13,15,-1,17,19,21,23,25,-1,27,29,-1,31,33,35,37,39,41,43,-1,45,47,49,-1,51,53,-1,55,57,59,61,63,65,67,69,71,73,75,77,79,81,-1,-1,-1,-1,-1,-1,-1,-1,-1,-1,-1,-1,-1,-1,-1,-1,-1,-1,-1,-1,-1,-1,-1,-1,-1,-1,-1,-1,-1,-1,-1,-1,-1,-1,-1,-1],"loss_changes":[5.7928293E-4,1.2542793E-4,1.710798E-4,4.88371E-5,4.765237E-5,5.8800862E-5,6.024615E-5,5.917096E-5,0E0,1.4377387E-5,3.5249657E-5,2.9946517E-5,6.618032E-5,5.8296922E-5,0E0,3.3183234E-5,3.921146E-5,0E0,1.0571355E-5,5.7847603E-5,1.954168E-5,2.3383673E-5,3.967219E-5,4.171832E-5,2.3901457E-5,0E0,5.1306866E-5,3.146848E-5,4.374553E-6,0E0,1.1383687E-5,9.991709E-6,1.6126108E-7,1.7751492E-5,4.4544315E-5,1.8936924E-5,6.7984583E-6,8.29359E-6,1.1718821E-5,3.226615E-5,2.4085944E-5,2.680521E-5,1.0900003E-5,1.1427674E-5,1.0518006E-6,7.6013457E-6,5.0619026E-5,0E0,0E0,0E0,0E0,0E0,0E0,0E0,0E0,0E0,0E0,0E0,0E0,0E0,0E0,0E0,0E0,0E0,0E0,0E0,0E0,0E0,0E0,0E0,0E0,0E0,0E0,0E0,0E0,0E0,0E0,0E0,0E0,0E0,0E0,0E0,0E0],"parents":[2147483647,0,0,1,1,2,2,3,3,4,4,5,5,6,6,7,7,9,9,10,10,11,11,12,12,13,13,15,15,16,16,18,18,19,19,20,20,21,21,22,22,23,23,24,24,26,26,27,27,28,28,30,30,31,31,33,33,34,34,35,35,36,36,37,37,38,38,39,39,40,40,41,41,42,42,43,43,44,44,45,45,46,46],"right_children":[2,4,6,8,10,12,14,16,-1,18,20,22,24,26,-1,28,30,-1,32,34,36,38,40,42,44,-1,46,48,50,-1,52,54,-1,56,58,60,62,64,66,68,70,72,74,76,78,80,82,-1,-1,-1,-1,-1,-1,-1,-1,-1,-1,-1,-1,-1,-1,-1,-1,-1,-1,-1,-1,-1,-1,-1,-1,-1,-1,-1,-1,-1,-1,-1,-1,-1,-1,-1,-1],"split_conditions":[4.6239716E-1,1.3966665E-1,7.739814E-1,6.5123355E-1,3.0120355E-1,6.170491E-1,5.643809E-1,9.905626E-2,-1.3962172E-3,3.6937064E-1,7.03004E-1,4.4327918E-1,8.1493884E-1,1.5172891E-1,1.7130376E-3,8.947191E-2,1.8585013E-1,2.903089E-4,7.5636363E-1,4.6825203E-1,9.93703E-1,4.2795908E-1,5.34897E-1,7.52007E-1,8.533319E-1,1.5120757E-3,1.4981702E-1,4.4361246E-1,5.540356E-1,3.628213E-4,6.712009E-1,7.5636363E-1,4.464388E-6,2.4638753E-1,5.2148795E-1,3.0584425E-1,5.780756E-1,3.702594E-1,7.562821E-1,5.3684837E-1,1.8835412E-1,2.867367E-1,3.518451E-1,7.326816E-1,4.1025573E-1,7.565403E-1,7.463782E-1,-1.083752E-3,-1.8774299E-4,5.862834E-4,-6.0910734E-5,-1.4263055E-3,-1.6558953E-4,-7.7776174E-4,-4.873276E-5,-2.3962205E-4,-1.521142E-5,-6.300225E-4,-2.477852E-4,-2.2863568E-4,7.415734E-5,4.5171382E-5,7.4686785E-4,4.5916266E-5,-3.9452437E-4,2.391442E-4,6.054998E-4,3.615193E-4,1.7236736E-5,2.2158623E-4,-2.0320427E-4,-1.9400337E-4,2.956108E-4,1.0652617E-3,1.7594696E-4,-6.378852E-4,-1.6329161E-4,1.3053417E-4,5.1231985E-4,1.7841161E-3,3.3978224E-4,1.8014575E-4,6.2179886E-4],"split_indices":[179,179,179,4,95,179,136,178,0,148,146,171,171,140,0,178,76,0,11,155,139,95,110,69,29,0,123,119,0,0,12,14,0,57,154,67,10,98,65,175,30,50,15,178,130,42,57,0,0,0,0,0,0,0,0,0,0,0,0,0,0,0,0,0,0,0,0,0,0,0,0,0,0,0,0,0,0,0,0,0,0,0,0],"split_type":[0,0,0,0,0,0,0,0,0,0,0,0,0,0,0,0,0,0,0,0,0,0,0,0,0,0,0,0,0,0,0,0,0,0,0,0,0,0,0,0,0,0,0,0,0,0,0,0,0,0,0,0,0,0,0,0,0,0,0,0,0,0,0,0,0,0,0,0,0,0,0,0,0,0,0,0,0,0,0,0,0,0,0],"sum_hessian":[1.052E3,4.18E2,6.34E2,4E1,3.78E2,5.29E2,1.05E2,3.2E1,8E0,2.4E1,3.54E2,3.08E2,2.21E2,1.02E2,3E0,2.2E1,1E1,1E0,2.3E1,2.72E2,8.2E1,6.9E1,2.39E2,1.97E2,2.4E1,4E0,9.8E1,1.8E1,4E0,1E0,9E0,2.1E1,2E0,1.41E2,1.31E2,7.7E1,5E0,2E1,4.9E1,1.36E2,1.03E2,1.88E2,9E0,2E1,4E0,3E0,9.5E1,4E0,1.4E1,3E0,1E0,8E0,1E0,1.9E1,2E0,4.7E1,9.4E1,4E1,9.1E1,2.9E1,4.8E1,2E0,3E0,1.6E1,4E0,3.9E1,1E1,3.1E1,1.05E2,1.3E1,9E1,1E1,1.78E2,7E0,2E0,7E0,1.3E1,2E0,2E0,2E0,1E0,5.1E1,4.4E1],"tree_param":{"num_deleted":"0","num_feature":"180","num_nodes":"83","size_leaf_vector":"0"}},{"base_weights":[4.2188818E-5,-4.582595E-4,6.269881E-4,-1.2237417E-3,-2.3279258E-4,4.7290468E-4,1.5835264E-3,-3.8727033E-3,-1.1079932E-3,-2.539692E-4,2.9365916E-3,3.690282E-4,1.2702594E-3,-1.7282963E-3,1.7120178E-3,-1.032728E-3,-3.824537E-3,9.725541E-4,-2.9976212E-4,3.6243051E-3,7.805824E-4,3.4793443E-4,4.107952E-3,4.0289015E-5,1.828116E-3,-3.852745E-4,1.8932134E-3,9.6741616E-4,-1.1080892E-3,-7.2190166E-4,1.2661836E-3,-7.4804394E-4,-1.5498706E-4,4.9594976E-4,-2.6511413E-4,4.0234838E-4,-1.6627511E-3,3.1382323E-3,1.2060627E-3,3.7932396E-4,-1.2763143E-3,4.390776E-3,1.5343957E-3,3.2966334E-5,1.579394E-3,2.1406077E-3,-1.1537614E-3,4.87715E-5,-1.131624E-3,-5.288422E-4,1.4449427E-3,-3.4104858E-4,-1.496034E-3,-3.490836E-4,4.1499044E-4,3.338022E-4,1.4573017E-3,-3.6499152E-4,3.4630299E-3,6.7590043E-4,-4.505068E-4,6.135702E-4,3.3505757E-3,8.124567E-4,2.9709786E-3,4.8016706E-3,9.627044E-4,3.8306117E-3,1.2740862E-3],"categories":[],"categories_nodes":[],"categories_segments":[],"categories_sizes":[],"default_left":[1,1,1,1,1,1,1,0,1,1,1,1,1,0,1,1,0,1,1,0,0,1,0,1,1,1,1,1,1,1,1,1,1,1,1,1,0,1,1,0,0,1,1,0,0,0,0,0,0,0,0,0,0,0,0,0,0,0,0,0,0,0,0,0,0,0,0,0,0],"id":17,"left_children":[1,3,5,7,9,11,13,-1,15,17,19,21,23,-1,25,27,-1,29,31,-1,-1,33,-1,35,37,39,41,43,45,47,49,51,53,55,57,59,-1,61,63,-1,-1,65,67,-1,-1,-1,-1,-1,-1,-1,-1,-1,-1,-1,-1,-1,-1,-1,-1,-1,-1,-1,-1,-1,-1,-1,-1,-1,-1],"loss_changes":[3.0846026E-4,9.774677E-5,7.088107E-5,3.5262143E-5,3.0277219E-5,3.4318335E-5,3.1470103E-5,0E0,2.1607979E-5,2.4892275E-5,1.6190788E-6,2.7988448E-5,3.2861404E-5,0E0,2.5430723E-5,1.9612198E-5,0E0,8.874734E-6,2.733677E-5,0E0,0E0,3.3886976E-5,0E0,1.0534631E-5,2.3108842E-5,4.571862E-6,4.7032983E-5,2.807246E-6,2.0126332E-5,1.0024771E-6,5.2564283E-6,3.0845917E-5,3.5657307E-5,4.6277833E-5,2.8446066E-5,3.5707014E-6,0E0,3.3051474E-6,1.4258563E-5,7.840656E-7,0E0,5.237438E-6,2.739673E-5,0E0,0E0,0E0,0E0,0E0,0E0,0E0,0E0,0E0,0E0,0E0,0E0,0E0,0E0,0E0,0E0,0E0,0E0,0E0,0E0,0E0,0E0,0E0,0E0,0E0,0E0],"parents":[2147483647,0,0,1,1,2,2,3,3,4,4,5,5,6,6,8,8,9,9,10,10,11,11,12,12,14,14,15,15,17,17,18,18,21,21,23,23,24,24,25,25,26,26,27,27,28,28,29,29,30,30,31,31,32,32,33,33,34,34,35,35,37,37,38,38,41,41,42,42],"right_children":[2,4,6,8,10,12,14,-1,16,18,20,22,24,-1,26,28,-1,30,32,-1,-1,34,-1,36,38,40,42,44,46,48,50,52,54,56,58,60,-1,62,64,-1,-1,66,68,-1,-1,-1,-1,-1,-1,-1,-1,-1,-1,-1,-1,-1,-1,-1,-1,-1,-1,-1,-1,-1,-1,-1,-1,-1,-1],"split_conditions":[5.3634053E-1,2.5432846E-1,8.441677E-1,4.0903557E-3,9.9911714E-1,8.2882893E-1,1.4859183E-1,-1.1618111E-3,2.6702416E-1,1.6319434E-1,3.7719828E-1,9.998267E-1,4.0372175E-1,-5.1848893E-4,1.5569636E-1,4.1112596E-1,-1.1473611E-3,1.0247392E-3,4.4648808E-1,1.0872916E-3,2.3417473E-4,7.390684E-1,1.2323856E-3,4.4903624E-1,4.1209584E-1,3.8226438E-1,1.7498928E-1,4.0562892E-1,1.8585013E-1,4.4301438E-1,4.1025573E-1,3.693444E-1,5.7575005E-1,6.678128E-1,9.941845E-1,9.979874E-1,-4.9882533E-4,4.3118337E-1,5.174979E-1,1.1379719E-4,-3.828943E-4,7.565403E-1,1.5172891E-1,9.889901E-6,4.7381822E-4,6.421823E-4,-3.4612842E-4,1.46314505E-5,-3.3948722E-4,-1.5865266E-4,4.334828E-4,-1.0231458E-4,-4.488102E-4,-1.04725084E-4,1.2449714E-4,1.0014066E-4,4.3719052E-4,-1.0949746E-4,1.038909E-3,2.0277014E-4,-1.3515205E-4,1.8407108E-4,1.0051727E-3,2.4373703E-4,8.9129363E-4,1.4405012E-3,2.8881134E-4,1.1491836E-3,3.8222587E-4],"split_indices":[179,179,178,179,26,47,129,0,178,36,0,156,96,0,119,1,0,27,144,0,0,28,0,122,95,0,120,1,65,0,74,148,78,27,34,36,0,0,8,0,0,42,140,0,0,0,0,0,0,0,0,0,0,0,0,0,0,0,0,0,0,0,0,0,0,0,0,0,0],"split_type":[0,0,0,0,0,0,0,0,0,0,0,0,0,0,0,0,0,0,0,0,0,0,0,0,0,0,0,0,0,0,0,0,0,0,0,0,0,0,0,0,0,0,0,0,0,0,0,0,0,0,0,0,0,0,0,0,0,0,0,0,0,0,0,0,0,0,0,0,0],"sum_hessian":[1.052E3,5.67E2,4.85E2,1.28E2,4.39E2,4.19E2,6.6E1,4E0,1.24E2,4.37E2,2E0,3.72E2,4.7E1,2E0,6.4E1,1.22E2,2E0,1.5E1,4.22E2,1E0,1E0,3.71E2,1E0,1.5E1,3.2E1,5E0,5.9E1,4E0,1.18E2,2E0,1.3E1,1.02E2,3.2E2,2.99E2,7.2E1,1.3E1,2E0,9E0,2.3E1,3E0,2E0,6E0,5.3E1,2E0,2E0,1E0,1.17E2,1E0,1E0,1E0,1.2E1,6.7E1,3.5E1,2.39E2,8.1E1,2.57E2,4.2E1,7.1E1,1E0,1E1,3E0,1E0,8E0,2E1,3E0,5E0,1E0,4E0,4.9E1],"tree_param":{"num_deleted":"0","num_feature":"180","num_nodes":"69","size_leaf_vector":"0"}},{"base_weights":[3.549282E-5,-6.530462E-4,2.6554192E-4,-1.9446643E-3,-5.4494245E-4,6.377323E-5,7.47608E-4,-3.648146E-3,-7.467783E-4,-4.491566E-5,-7.3678937E-4,9.141468E-4,3.3755412E-6,2.3486377E-3,6.727959E-4,-1.8932124E-3,-3.6622558E-4,-3.5256427E-4,1.188887E-3,-1.0882167E-3,-3.068482E-4,3.6512763E-4,1.4733821E-3,3.1132564E-5,-1.4208972E-3,3.983152E-3,5.951027E-4,5.9856474E-4,2.3795897E-3,2.3780142E-4,-9.09215E-4,-1.8823442E-4,-2.4417937E-3,2.4993399E-3,-1.0637008E-4,-9.392439E-4,-3.1910974E-3,2.5731958E-3,-4.5060882E-4,-1.083692E-3,5.863127E-4,-5.4708123E-4,1.6244141E-3,-8.850592E-5,3.568785E-4,4.208684E-4,-1.672301E-3,5.4582884E-4,3.2571107E-3,1.3506413E-4,2.6432723E-3,-4.5699129E-4,6.994456E-4,6.459933E-5,-1.1168977E-3,1.7157234E-3,-3.3678635E-4,2.7469422E-3,5.06863E-4,-1.2010187E-3,7.9062284E-4,-2.612713E-3,-8.3348714E-4,-7.3160726E-4,-4.2379405E-3,-1.3318651E-3,-1.025694E-4,-3.1716377E-4,1.1900853E-3,2.3631984E-3,7.051395E-4,-1.7075037E-4,8.009579E-4,5.382539E-4,-4.4513322E-4,-4.127721E-4,-1.973199E-3,9.146984E-5,8.527848E-4,3.797273E-3,8.1831217E-4],"categories":[],"categories_nodes":[],"categories_segments":[],"categories_sizes":[],"default_left":[1,1,1,1,1,1,1,0,1,1,1,1,1,1,1,0,1,1,1,1,1,1,1,1,1,0,0,1,1,1,1,1,0,1,1,1,1,0,1,0,1,0,1,1,1,0,1,1,1,0,0,0,0,0,0,0,0,0,0,0,0,0,0,0,0,0,0,0,0,0,0,0,0,0,0,0,0,0,0,0,0],"id":18,"left_children":[1,3,5,7,9,11,13,-1,15,17,19,21,23,25,27,-1,29,31,33,35,37,39,41,43,45,-1,-1,47,49,51,53,55,-1,57,59,61,63,-1,65,-1,67,-1,69,71,73,-1,75,77,79,-1,-1,-1,-1,-1,-1,-1,-1,-1,-1,-1,-1,-1,-1,-1,-1,-1,-1,-1,-1,-1,-1,-1,-1,-1,-1,-1,-1,-1,-1,-1,-1],"loss_changes":[1.6696627E-4,3.5802244E-5,7.679235E-5,3.8087186E-5,2.3469409E-5,2.8656126E-5,2.6327718E-5,0E0,4.97828E-6,2.6610018E-5,2.6409565E-5,1.0822172E-5,2.0680762E-5,2.6291396E-5,2.6955873E-5,0E0,3.8239955E-6,1.8766445E-5,2.4029081E-5,2.7390175E-5,3.4696495E-5,7.0445267E-6,6.3814696E-6,2.0024094E-5,5.3340864E-6,0E0,0E0,2.850555E-5,4.9695736E-6,2.2441227E-6,1.2856167E-6,1.5568174E-5,0E0,2.0610714E-6,8.804689E-6,1.4104546E-5,1.2347693E-5,0E0,2.3786919E-5,0E0,1.019635E-5,0E0,9.879095E-6,2.7642467E-5,2.0313797E-5,0E0,2.5964273E-6,2.9628718E-5,2.1620326E-6,0E0,3.9501174E-8,0E0,0E0,0E0,0E0,0E0,0E0,0E0,0E0,0E0,0E0,0E0,0E0,0E0,0E0,0E0,0E0,0E0,0E0,0E0,0E0,0E0,0E0,0E0,0E0,0E0,0E0,0E0,0E0,0E0,0E0],"parents":[2147483647,0,0,1,1,2,2,3,3,4,4,5,5,6,6,8,8,9,9,10,10,11,11,12,12,13,13,14,14,16,16,17,17,18,18,19,19,20,20,21,21,22,22,23,23,24,24,27,27,28,28,29,29,30,30,31,31,33,33,34,34,35,35,36,36,38,38,40,40,42,42,43,43,44,44,46,46,47,47,48,48],"right_children":[2,4,6,8,10,12,14,-1,16,18,20,22,24,26,28,-1,30,32,34,36,38,40,42,44,46,-1,-1,48,50,52,54,56,-1,58,60,62,64,-1,66,-1,68,-1,70,72,74,-1,76,78,80,-1,-1,-1,-1,-1,-1,-1,-1,-1,-1,-1,-1,-1,-1,-1,-1,-1,-1,-1,-1,-1,-1,-1,-1,-1,-1,-1,-1,-1,-1,-1,-1],"split_conditions":[3.954836E-1,7.608464E-2,6.777479E-1,4.8333645E-1,2.0996465E-1,2.4003789E-1,6.698245E-1,-1.0944438E-3,2.1114875E-1,1.8874593E-1,5.7084286E-1,4.12728E-1,9.9134195E-1,5.1605415E-1,9.9234295E-1,-5.6796375E-4,6.457503E-1,2.172983E-1,4.4883376E-1,6.712009E-1,5.7084286E-1,4.4676918E-1,4.1025573E-1,7.314412E-1,5.803311E-1,1.1949457E-3,1.7853083E-4,9.979874E-1,1.5348536E-1,6.1669344E-1,2.0996465E-1,7.962893E-2,-7.325381E-4,5.6071985E-1,2.0216513E-1,4.6432632E-1,4.1321456E-1,7.719588E-4,4.2246497E-1,-3.251076E-4,1.5746346E-1,-1.6412437E-4,4.4572017E-1,7.605332E-1,8.4870356E-1,1.2626052E-4,1.4859183E-1,3.675859E-1,7.565403E-1,4.051924E-5,7.929817E-4,-1.3709739E-4,2.0983368E-4,1.9379799E-5,-3.3506932E-4,5.147171E-4,-1.0103591E-4,8.240827E-4,1.520589E-4,-3.6030562E-4,2.3718686E-4,-7.8381394E-4,-2.5004614E-4,-2.1948219E-4,-1.2713822E-3,-3.9955953E-4,-3.077082E-5,-9.514913E-5,3.570256E-4,7.0895953E-4,2.1154185E-4,-5.1225114E-5,2.4028738E-4,1.6147619E-4,-1.3353997E-4,-1.2383163E-4,-5.919597E-4,2.7440952E-5,2.5583545E-4,1.1391819E-3,2.4549366E-4],"split_indices":[179,175,179,136,169,9,177,0,22,169,40,133,142,122,179,0,0,172,152,13,41,112,52,144,0,0,0,164,14,62,26,175,0,30,169,108,56,0,102,0,12,0,133,44,160,0,103,132,42,0,0,0,0,0,0,0,0,0,0,0,0,0,0,0,0,0,0,0,0,0,0,0,0,0,0,0,0,0,0,0,0],"split_type":[0,0,0,0,0,0,0,0,0,0,0,0,0,0,0,0,0,0,0,0,0,0,0,0,0,0,0,0,0,0,0,0,0,0,0,0,0,0,0,0,0,0,0,0,0,0,0,0,0,0,0,0,0,0,0,0,0,0,0,0,0,0,0,0,0,0,0,0,0,0,0,0,0,0,0,0,0,0,0,0,0],"sum_hessian":[1.052E3,2.63E2,7.89E2,1.9E1,2.44E2,5.57E2,2.32E2,7E0,1.2E1,6.8E1,1.76E2,3.6E1,5.21E2,9E0,2.23E2,2E0,1E1,5.5E1,1.3E1,9.6E1,8E1,1.9E1,1.7E1,5.12E2,9E0,4E0,5E0,2.15E2,8E0,5E0,5E0,5.2E1,3E0,6E0,7E0,9.1E1,5E0,3E0,7.7E1,2E0,1.7E1,1E0,1.6E1,3.75E2,1.37E2,1E0,8E0,2.12E2,3E0,1E0,7E0,2E0,3E0,1E0,4E0,3E0,4.9E1,5E0,1E0,3E0,4E0,4E0,8.7E1,2E0,3E0,2.1E1,5.6E1,7E0,1E1,8E0,8E0,3.44E2,3.1E1,1.12E2,2.5E1,2E0,6E0,8.6E1,1.26E2,2E0,1E0],"tree_param":{"num_deleted":"0","num_feature":"180","num_nodes":"81","size_leaf_vector":"0"}},{"base_weights":[2.545287E-5,-3.9064063E-4,2.3316748E-4,-9.580027E-4,-2.6560793E-4,1.3869935E-4,7.6391053E-4,-6.2433403E-4,-3.5381615E-3,-2.0829366E-4,-1.4664119E-3,1.3348857E-3,1.077379E-4,2.7432293E-3,5.9624936E-4,-1.1124829E-3,5.8969157E-4,-2.3454826E-3,-1.8422143E-4,7.6822937E-4,-2.213627E-3,1.9518733E-3,-2.89464E-4,6.141727E-4,3.9808165E-5,6.578366E-5,3.6247473E-3,-1.2684398E-3,7.7411695E-4,-8.129678E-4,-2.7241595E-3,1.5621126E-3,1.7032257E-4,1.1606684E-3,-2.1853372E-4,-2.7393016E-3,-7.402897E-4,1.508991E-4,2.3353233E-3,8.689761E-4,-7.9631805E-4,1.0420878E-5,1.2353755E-3,1.6520171E-4,-2.9814307E-4,3.9994717E-5,-2.3231865E-3,3.7420094E-3,6.995625E-4,-1.1178055E-3,1.3005867E-3,2.0954758E-4,-3.3528104E-3,1.8118508E-3,2.815798E-4,9.994209E-4,-1.7834902E-4,-3.5975873E-4,1.4740328E-3,-2.961682E-4,4.0982664E-4,8.537173E-4,3.3498644E-3,-1.1009375E-3,5.877018E-5,1.1744102E-3,-3.6409072E-4,-1.6452074E-3,1.3725207E-3,1.2546098E-4,1.6111403E-3,-1.762712E-3,-1.8406802E-4,5.8054645E-4,2.2690296E-3],"categories":[],"categories_nodes":[],"categories_segments":[],"categories_sizes":[],"default_left":[1,1,1,1,1,1,1,1,0,1,1,1,1,1,1,1,1,0,1,0,1,1,1,1,1,0,0,1,1,1,1,1,1,1,1,0,0,0,1,0,1,1,1,1,1,0,0,0,1,0,0,0,0,0,0,0,0,0,0,0,0,0,0,0,0,0,0,0,0,0,0,0,0,0,0],"id":19,"left_children":[1,3,5,7,9,11,13,15,-1,17,19,21,23,25,27,29,31,-1,33,-1,35,37,39,41,43,-1,-1,45,47,49,51,53,55,57,59,-1,-1,-1,61,-1,63,65,67,69,71,-1,-1,-1,73,-1,-1,-1,-1,-1,-1,-1,-1,-1,-1,-1,-1,-1,-1,-1,-1,-1,-1,-1,-1,-1,-1,-1,-1,-1,-1],"loss_changes":[9.1100505E-5,2.4645073E-5,3.5141267E-5,5.202885E-5,1.9584464E-5,2.200352E-5,3.354098E-5,3.443566E-5,0E0,1.3818695E-5,2.340743E-5,1.559805E-5,2.0066309E-5,1.8643277E-5,3.381703E-5,1.7576927E-5,6.666592E-6,0E0,1.2943868E-5,0E0,5.7170837E-6,7.244016E-6,3.6277818E-6,2.5865738E-5,2.1915735E-5,4.7090043E-7,0E0,1.2513517E-5,1.7517774E-5,2.4648276E-5,1.1768243E-5,1.0888089E-6,3.9363254E-6,3.8654307E-6,1.32438545E-5,0E0,0E0,3.4501156E-7,1.0668515E-5,0E0,1.1066086E-6,1.6120981E-5,1.5690057E-5,2.1461285E-5,2.3065446E-5,9.93582E-7,0E0,0E0,1.5493984E-5,0E0,0E0,0E0,0E0,0E0,0E0,0E0,0E0,0E0,0E0,0E0,0E0,0E0,0E0,0E0,0E0,0E0,0E0,0E0,0E0,0E0,0E0,0E0,0E0,0E0,0E0],"parents":[2147483647,0,0,1,1,2,2,3,3,4,4,5,5,6,6,7,7,9,9,10,10,11,11,12,12,13,13,14,14,15,15,16,16,18,18,20,20,21,21,22,22,23,23,24,24,27,27,28,28,29,29,30,30,31,31,32,32,33,33,34,34,38,38,40,40,41,41,42,42,43,43,44,44,48,48],"right_children":[2,4,6,8,10,12,14,16,-1,18,20,22,24,26,28,30,32,-1,34,-1,36,38,40,42,44,-1,-1,46,48,50,52,54,56,58,60,-1,-1,-1,62,-1,64,66,68,70,72,-1,-1,-1,74,-1,-1,-1,-1,-1,-1,-1,-1,-1,-1,-1,-1,-1,-1,-1,-1,-1,-1,-1,-1,-1,-1,-1,-1,-1,-1],"split_conditions":[4.3518353E-1,1.6979463E-1,7.739814E-1,1.6097829E-1,4.2865372E-1,1.1221075E-1,7.90426E-1,1.3966665E-1,-1.0614485E-3,1.4859183E-1,3.6900985E-1,7.484698E-1,2.7111074E-1,4.2882833E-1,8.049752E-1,1.1624649E-1,6.8490195E-1,-7.036448E-4,1.7824724E-1,2.3046882E-4,5.890542E-1,6.561108E-2,6.561108E-2,4.8901445E-1,6.466776E-1,1.9735098E-5,1.0874242E-3,7.3841643E-1,1.4766762E-1,1.03901945E-1,4.2378974E-1,5.0224626E-1,3.765895E-1,4.6348184E-1,4.173313E-1,-8.2179054E-4,-2.2208692E-4,4.526973E-5,5.3293395E-1,2.6069285E-4,2.5312603E-1,4.4361246E-1,2.6389867E-1,6.708741E-1,6.643974E-1,1.1998415E-5,-6.9695595E-4,1.1226028E-3,5.379347E-1,-3.3534167E-4,3.9017605E-4,6.2864274E-5,-1.0058432E-3,5.4355524E-4,8.447394E-5,2.9982626E-4,-5.3504707E-5,-1.07927626E-4,4.4220986E-4,-8.8850466E-5,1.22948E-4,2.5611522E-4,1.0049593E-3,-3.3028127E-4,1.7631055E-5,3.5232308E-4,-1.0922722E-4,-4.9356226E-4,4.1175622E-4,3.7638296E-5,4.8334213E-4,-5.2881363E-4,-5.5220407E-5,1.7416394E-4,6.807089E-4],"split_indices":[179,179,179,179,179,7,179,179,0,90,154,36,121,0,179,179,117,0,179,0,155,5,8,86,169,0,0,28,124,179,0,0,63,0,179,0,0,0,45,0,0,78,64,165,168,0,0,0,137,0,0,0,0,0,0,0,0,0,0,0,0,0,0,0,0,0,0,0,0,0,0,0,0,0,0],"split_type":[0,0,0,0,0,0,0,0,0,0,0,0,0,0,0,0,0,0,0,0,0,0,0,0,0,0,0,0,0,0,0,0,0,0,0,0,0,0,0,0,0,0,0,0,0,0,0,0,0,0,0,0,0,0,0,0,0,0,0,0,0,0,0,0,0,0,0,0,0,0,0,0,0,0,0],"sum_hessian":[1.052E3,3.5E2,7.02E2,6.2E1,2.88E2,5.97E2,1.05E2,5.6E1,6E0,2.76E2,1.2E1,1.4E1,5.83E2,7E0,9.8E1,4E1,1.6E1,2E0,2.74E2,3E0,9E0,1E1,4E0,6.8E1,5.15E2,2E0,5E0,8E0,9E1,3.5E1,5E0,4E0,1.2E1,6E0,2.68E2,6E0,3E0,2E0,8E0,1E0,3E0,3.5E1,3.3E1,3.76E2,1.39E2,4E0,4E0,1E0,8.9E1,3.1E1,4E0,1E0,4E0,3E0,1E0,3E0,9E0,1E0,5E0,2.39E2,2.9E1,4E0,4E0,2E0,1E0,8E0,2.7E1,1E0,3.2E1,3.67E2,9E0,9E0,1.3E2,8.4E1,5E0],"tree_param":{"num_deleted":"0","num_feature":"180","num_nodes":"75","size_leaf_vector":"0"}},{"base_weights":[1.9272238E-5,-1.466582E-4,